{"learner":{"attributes":{"best_iteration":"344","best_score":"0.8369239676230558"},"feature_names":[],"feature_types":[],"gradient_booster":{"model":{"gbtree_model_param":{"num_parallel_tree":"1","num_trees":"395"},"iteration_indptr":[0,1,2,3,4,5,6,7,8,9,10,11,12,13,14,15,16,17,18,19,20,21,22,23,24,25,26,27,28,29,30,31,32,33,34,35,36,37,38,39,40,41,42,43,44,45,46,47,48,49,50,51,52,53,54,55,56,57,58,59,60,61,62,63,64,65,66,67,68,69,70,71,72,73,74,75,76,77,78,79,80,81,82,83,84,85,86,87,88,89,90,91,92,93,94,95,96,97,98,99,100,101,102,103,104,105,106,107,108,109,110,111,112,113,114,115,116,117,118,119,120,121,122,123,124,125,126,127,128,129,130,131,132,133,134,135,136,137,138,139,140,141,142,143,144,145,146,147,148,149,150,151,152,153,154,155,156,157,158,159,160,161,162,163,164,165,166,167,168,169,170,171,172,173,174,175,176,177,178,179,180,181,182,183,184,185,186,187,188,189,190,191,192,193,194,195,196,197,198,199,200,201,202,203,204,205,206,207,208,209,210,211,212,213,214,215,216,217,218,219,220,221,222,223,224,225,226,227,228,229,230,231,232,233,234,235,236,237,238,239,240,241,242,243,244,245,246,247,248,249,250,251,252,253,254,255,256,257,258,259,260,261,262,263,264,265,266,267,268,269,270,271,272,273,274,275,276,277,278,279,280,281,282,283,284,285,286,287,288,289,290,291,292,293,294,295,296,297,298,299,300,301,302,303,304,305,306,307,308,309,310,311,312,313,314,315,316,317,318,319,320,321,322,323,324,325,326,327,328,329,330,331,332,333,334,335,336,337,338,339,340,341,342,343,344,345,346,347,348,349,350,351,352,353,354,355,356,357,358,359,360,361,362,363,364,365,366,367,368,369,370,371,372,373,374,375,376,377,378,379,380,381,382,383,384,385,386,387,388,389,390,391,392,393,394,395],"tree_info":[0,0,0,0,0,0,0,0,0,0,0,0,0,0,0,0,0,0,0,0,0,0,0,0,0,0,0,0,0,0,0,0,0,0,0,0,0,0,0,0,0,0,0,0,0,0,0,0,0,0,0,0,0,0,0,0,0,0,0,0,0,0,0,0,0,0,0,0,0,0,0,0,0,0,0,0,0,0,0,0,0,0,0,0,0,0,0,0,0,0,0,0,0,0,0,0,0,0,0,0,0,0,0,0,0,0,0,0,0,0,0,0,0,0,0,0,0,0,0,0,0,0,0,0,0,0,0,0,0,0,0,0,0,0,0,0,0,0,0,0,0,0,0,0,0,0,0,0,0,0,0,0,0,0,0,0,0,0,0,0,0,0,0,0,0,0,0,0,0,0,0,0,0,0,0,0,0,0,0,0,0,0,0,0,0,0,0,0,0,0,0,0,0,0,0,0,0,0,0,0,0,0,0,0,0,0,0,0,0,0,0,0,0,0,0,0,0,0,0,0,0,0,0,0,0,0,0,0,0,0,0,0,0,0,0,0,0,0,0,0,0,0,0,0,0,0,0,0,0,0,0,0,0,0,0,0,0,0,0,0,0,0,0,0,0,0,0,0,0,0,0,0,0,0,0,0,0,0,0,0,0,0,0,0,0,0,0,0,0,0,0,0,0,0,0,0,0,0,0,0,0,0,0,0,0,0,0,0,0,0,0,0,0,0,0,0,0,0,0,0,0,0,0,0,0,0,0,0,0,0,0,0,0,0,0,0,0,0,0,0,0,0,0,0,0,0,0,0,0,0,0,0,0,0,0,0,0,0,0,0,0,0,0,0,0,0,0,0,0,0,0,0,0,0,0,0,0,0,0,0,0,0,0,0,0,0,0,0,0,0,0,0,0,0,0],"trees":[{"base_weights":[-5.397876E-4,4.0869892E-1,-4.4959706E-1,5.398106E-1,-5.1515746E-1,-6.475327E-1,6.842425E-1,1.0879995E0,2.1776919E-1,7.261055E-2,-8.3441216E-1,-7.7134466E-1,3.2218054E-1,1.5461626E0,-1.7962137E-1,2.8978166E-1,1.300013E0,-1.9003005E-1,4.8313242E-1,-2.5175212E-2,-1.2753102E0,-2.9071137E-1,-9.6807355E-1,1.0780623E0,-4.3017256E-1,4.200095E-2,1.3691665E-1,7.187224E-2,-7.836398E-1,-3.4522545E-1,1.0851338E-1,1.5181231E0,5.395294E-1,-4.0137786E-1,9.644985E-2,6.665687E-1,-7.2954464E-1,-6.678657E-2,5.246005E-2,-1.1943645E-1,-1.843656E-2,-8.5090667E-1,2.4104412E-1,-7.362055E-1,-1.3532926E0,1.2435183E-1,2.6845757E-2,-7.851821E-2,1.2380807E-2,-1.0107792E-1,-1.0570305E-2,-1.0304907E-1,2.3726493E-2,1.7389467E0,5.282396E-1,-5.4699067E-2,1.0583093E0,-5.713422E-1,9.0350956E-2,7.450697E-2,9.130234E-1,1.7825946E-2,-9.779162E-2,5.071733E-3,-1.2171395E0,-4.6041393E-1,1.1334374E0,-1.0745384E0,-3.099615E-1,-2.9515088E-2,-1.502622E0,1.8394724E0,5.8362022E-2,-3.0524062E-2,9.2761055E-2,1.19074464E-1,1.7546305E-2,1.1249683E-1,-9.9943507E-1,-2.6180527E-1,7.559879E-2,1.0991882E0,-1.7604144E-2,-1.1512378E-1,-2.4383837E-2,-9.224752E-1,4.6738803E-2,1.2600975E-1,5.7384437E-3,-1.3156017E0,2.1814816E-3,-7.746595E-1,4.645446E-1,-1.2163509E-1,-4.1945655E-2,7.678855E-2,1.4543167E-1,-7.273923E-2,4.915174E-2,-9.179958E-2,-6.6156117E-3,4.7479283E-2,-6.846009E-2,1.8961227E-2,9.814593E-2,-1.1818415E-1,-1.6061842E-2,-6.349058E-3,-1.1077585E-1,7.7502606E-3,-8.092439E-2,9.009632E-2,-3.8051154E-2],"categories":[],"categories_nodes":[],"categories_segments":[],"categories_sizes":[],"default_left":[0,0,0,0,0,0,0,0,0,0,0,0,0,0,0,0,0,0,0,0,0,0,0,0,0,0,0,0,0,0,0,0,0,0,0,0,0,0,0,0,0,0,0,0,0,0,0,0,0,0,0,0,0,0,0,0,0,0,0,0,0,0,0,0,0,0,0,0,0,0,0,0,0,0,0,0,0,0,0,0,0,0,0,0,0,0,0,0,0,0,0,0,0,0,0,0,0,0,0,0,0,0,0,0,0,0,0,0,0,0,0,0,0],"id":0,"left_children":[1,3,5,7,9,11,13,15,17,-1,19,21,23,25,27,29,31,33,35,37,39,41,43,45,47,-1,-1,-1,49,51,-1,53,55,57,-1,59,61,-1,-1,-1,-1,63,65,67,69,-1,-1,-1,-1,-1,-1,-1,-1,71,73,-1,75,77,-1,79,81,-1,-1,-1,83,85,87,89,91,-1,93,95,-1,-1,-1,-1,-1,97,99,101,-1,103,-1,-1,-1,105,-1,-1,-1,107,-1,109,111,-1,-1,-1,-1,-1,-1,-1,-1,-1,-1,-1,-1,-1,-1,-1,-1,-1,-1,-1,-1],"loss_changes":[1.09953545E2,3.819581E1,6.44674E1,4.82446E1,1.9473299E1,2.947081E1,3.2209778E1,1.6779678E1,1.8947613E1,0E0,1.1732035E1,2.0154617E1,1.6536642E1,4.9210205E0,1.6088385E1,1.707718E1,1.2419754E1,2.2167542E1,2.402999E1,8.554159E0,6.5712166E0,1.9329628E1,1.266333E1,5.4137363E0,5.635218E0,0E0,0E0,0E0,5.2940664E0,1.0899027E1,0E0,1.25190735E1,1.3502856E1,1.7469074E1,0E0,1.3422676E1,8.300301E0,0E0,0E0,0E0,0E0,1.0673727E1,2.1627026E1,1.3750679E1,7.4732285E0,0E0,0E0,0E0,0E0,0E0,0E0,0E0,0E0,3.3809357E0,8.885407E0,0E0,5.7970734E0,1.6585155E1,0E0,9.136776E0,1.4187565E1,0E0,0E0,0E0,5.897972E0,1.0382569E1,8.612137E0,1.4414982E1,1.6419407E1,0E0,4.527527E0,1.6199646E0,0E0,0E0,0E0,0E0,0E0,1.3892593E1,6.9939384E0,1.3144182E1,0E0,9.642975E0,0E0,0E0,0E0,6.203923E0,0E0,0E0,0E0,8.691284E0,0E0,7.663452E0,1.3038219E1,0E0,0E0,0E0,0E0,0E0,0E0,0E0,0E0,0E0,0E0,0E0,0E0,0E0,0E0,0E0,0E0,0E0,0E0,0E0,0E0],"parents":[2147483647,0,0,1,1,2,2,3,3,4,4,5,5,6,6,7,7,8,8,10,10,11,11,12,12,13,13,14,14,15,15,16,16,17,17,18,18,19,19,20,20,21,21,22,22,23,23,24,24,28,28,29,29,31,31,32,32,33,33,35,35,36,36,41,41,42,42,43,43,44,44,53,53,54,54,56,56,57,57,59,59,60,60,64,64,65,65,66,66,67,67,68,68,70,70,71,71,77,77,78,78,79,79,81,81,85,85,89,89,91,91,92,92],"right_children":[2,4,6,8,10,12,14,16,18,-1,20,22,24,26,28,30,32,34,36,38,40,42,44,46,48,-1,-1,-1,50,52,-1,54,56,58,-1,60,62,-1,-1,-1,-1,64,66,68,70,-1,-1,-1,-1,-1,-1,-1,-1,72,74,-1,76,78,-1,80,82,-1,-1,-1,84,86,88,90,92,-1,94,96,-1,-1,-1,-1,-1,98,100,102,-1,104,-1,-1,-1,106,-1,-1,-1,108,-1,110,112,-1,-1,-1,-1,-1,-1,-1,-1,-1,-1,-1,-1,-1,-1,-1,-1,-1,-1,-1,-1],"split_conditions":[8.195963E-2,7.158805E-3,5.7323568E-2,-3.2344434E-2,-2.998029E-2,6.533866E-2,8.498128E-2,8.671407E-2,1.0432342E-1,7.261055E-2,2.1881793E-1,4.6639723E-1,1.7498098E-1,-2.865892E-3,7.779444E-2,-2.5471698E-2,9.471682E-2,9.70924E0,3.7246617E-3,-1.4003031E-3,-1.6852039E-4,5.358345E-2,6.689936E-3,9.6537046E-2,2.2507823E-1,4.200095E-2,1.3691665E-1,7.187224E-2,3.4350735E-1,-2.3005637E-3,1.0851338E-1,4.2321775E-2,-4.6478954E-4,3.4964234E-1,9.644985E-2,-2.4427946E-3,3.6759207E-8,-6.678657E-2,5.246005E-2,-1.1943645E-1,-1.843656E-2,2.433517E0,7.222339E-3,-6.3823936E-6,-2.6419025E-3,1.2435183E-1,2.6845757E-2,-7.851821E-2,1.2380807E-2,-1.0107792E-1,-1.0570305E-2,-1.0304907E-1,2.3726493E-2,2.872395E-3,6.5438525E-4,-5.4699067E-2,7.356561E-1,-1.790235E-1,9.0350956E-2,1.8375184E-2,7.447659E-1,1.7825946E-2,-9.779162E-2,5.071733E-3,2.5923265E-2,4.8647216E-3,1.1760697E-3,6.938449E-2,7.366423E-4,-2.9515088E-2,1.2607686E-2,1.3546668E-2,5.8362022E-2,-3.0524062E-2,9.2761055E-2,1.19074464E-1,1.7546305E-2,-5.354609E-5,6.638714E-3,-3.6209663E-3,7.559879E-2,-8.7133255E-3,-1.7604144E-2,-1.1512378E-1,-2.4383837E-2,1.9809925E-6,4.6738803E-2,1.2600975E-1,5.7384437E-3,-7.3640265E-2,2.1814816E-3,-1.9408187E-2,2.6039427E-2,-1.2163509E-1,-4.1945655E-2,7.678855E-2,1.4543167E-1,-7.273923E-2,4.915174E-2,-9.179958E-2,-6.6156117E-3,4.7479283E-2,-6.846009E-2,1.8961227E-2,9.814593E-2,-1.1818415E-1,-1.6061842E-2,-6.349058E-3,-1.1077585E-1,7.7502606E-3,-8.092439E-2,9.009632E-2,-3.8051154E-2],"split_indices":[392,427,148,200,566,95,389,492,398,0,492,570,246,14,475,517,423,472,347,67,411,402,373,509,468,0,0,0,519,103,0,449,64,221,0,149,371,0,0,0,0,502,74,205,146,0,0,0,0,0,0,0,0,553,73,0,438,453,0,365,247,0,0,0,354,230,358,206,36,0,181,561,0,0,0,0,0,1,81,79,0,301,0,0,0,49,0,0,0,310,0,295,69,0,0,0,0,0,0,0,0,0,0,0,0,0,0,0,0,0,0,0,0],"split_type":[0,0,0,0,0,0,0,0,0,0,0,0,0,0,0,0,0,0,0,0,0,0,0,0,0,0,0,0,0,0,0,0,0,0,0,0,0,0,0,0,0,0,0,0,0,0,0,0,0,0,0,0,0,0,0,0,0,0,0,0,0,0,0,0,0,0,0,0,0,0,0,0,0,0,0,0,0,0,0,0,0,0,0,0,0,0,0,0,0,0,0,0,0,0,0,0,0,0,0,0,0,0,0,0,0,0,0,0,0,0,0,0,0],"sum_hessian":[5.9631635E2,3.1203754E2,2.842788E2,2.7362146E2,3.8416058E1,2.4239293E2,4.1885895E1,1.0037744E2,1.7324402E2,6.443984E0,3.1972073E1,2.1512991E2,2.7263008E1,2.0571178E1,2.1314716E1,2.1562561E1,7.881488E1,6.8405365E1,1.0483866E2,1.164874E1,2.0323334E1,6.320061E1,1.519293E2,1.3383658E1,1.387935E1,5.2047563E0,1.5366423E1,7.1875205E0,1.4127195E1,1.4375041E1,7.1875205E0,6.0474308E1,1.8340569E1,6.0474308E1,7.931057E0,9.1455E1,1.3383658E1,5.2047563E0,6.443984E0,1.5118577E1,5.2047563E0,3.0485E1,3.271561E1,9.665976E1,5.5269554E1,6.691829E0,6.691829E0,6.443984E0,7.4353657E0,6.939675E0,7.1875205E0,5.2047563E0,9.170284E0,4.882557E1,1.164874E1,5.2047563E0,1.3135813E1,5.5269554E1,5.2047563E0,2.7263008E1,6.419199E1,5.2047563E0,8.178903E0,8.92244E0,2.1562561E1,1.8588415E1,1.4127195E1,5.3038944E1,4.362081E1,7.931057E0,4.7338497E1,4.3372967E1,5.4526014E0,5.2047563E0,6.443984E0,7.4353657E0,5.700447E0,2.1562561E1,3.3706993E1,2.0571178E1,6.691829E0,5.5269554E1,8.92244E0,1.5366423E1,6.1961384E0,1.3135813E1,5.4526014E0,8.92244E0,5.2047563E0,4.3372967E1,9.665976E0,2.7263008E1,1.6357805E1,4.1390205E1,5.9482927E0,5.9482927E0,3.7424675E1,6.939675E0,1.4622887E1,2.6767317E1,6.939675E0,8.674594E0,1.1896585E1,1.1400894E1,4.386866E1,6.1961384E0,6.939675E0,5.2047563E0,3.8168213E1,7.1875205E0,2.0075487E1,9.170284E0,7.1875205E0],"tree_param":{"num_deleted":"0","num_feature":"573","num_nodes":"113","size_leaf_vector":"1"}},{"base_weights":[-3.3629057E-4,3.1987277E-1,-5.007511E-1,6.933856E-1,1.0159425E-1,-6.812606E-1,4.9759108E-1,9.017837E-1,-7.010655E-1,-1.7484842E-2,9.545049E-1,-8.036362E-1,4.5564154E-1,1.3208876E0,-3.3755443E-1,1.3105246E0,4.78263E-1,1.5049359E-2,-9.401439E-2,-4.2330635E-1,2.1537524E-1,1.3609419E0,-9.225755E-3,-3.442446E-1,-1.0086762E0,8.969345E-1,-4.522725E-2,3.8684607E-2,1.2489776E-1,2.603597E-2,-8.554825E-2,3.0476844E-3,1.4459347E0,-6.787295E-2,7.332764E-1,-5.6443655E-1,8.154992E-2,5.478256E-1,-2.8278464E-1,4.087739E-2,1.3526359E-1,-5.864152E-1,8.349021E-2,-1.3209848E0,-6.586656E-1,1.0681668E-1,5.7659354E-3,1.8411752E-2,1.5782316E0,-5.538714E-2,9.186145E-1,-6.981902E-1,5.468113E-2,7.1506256E-1,-6.264049E-2,6.311367E-1,-6.101905E-1,-8.3286697E-1,6.41891E-2,-2.8017865E-2,-1.4107739E0,-8.056985E-1,5.652803E-2,1.7627363E0,9.115243E-1,1.2048309E0,6.4061694E-2,-1.2619971E0,-3.436791E-1,-2.4153577E-2,8.949143E-1,1.1759429E-1,-2.4967087E-2,2.1913074E-2,-8.945834E-1,2.3293527E-2,-1.0265365E0,-1.5326071E0,-3.995628E-2,2.2871954E-2,-9.721803E-1,1.4194009E-1,6.5322965E-2,1.0572299E-1,1.3972545E-2,2.4549713E-2,1.0964954E-1,-5.3604793E-2,6.681033E-2,-1.1719089E-1,-3.906351E-2,8.203956E-2,-4.6123266E-2,2.5717808E-2,1.0723399E-1,1.6665898E-2,-8.5250765E-2,-9.5463805E-2,-5.981873E-3,-1.2182474E-1,-7.035932E-2,8.018014E-3,-8.290091E-2],"categories":[],"categories_nodes":[],"categories_segments":[],"categories_sizes":[],"default_left":[0,0,0,0,0,0,0,0,0,0,0,0,0,0,0,0,0,0,0,0,0,0,0,0,0,0,0,0,0,0,0,0,0,0,0,0,0,0,0,0,0,0,0,0,0,0,0,0,0,0,0,0,0,0,0,0,0,0,0,0,0,0,0,0,0,0,0,0,0,0,0,0,0,0,0,0,0,0,0,0,0,0,0,0,0,0,0,0,0,0,0,0,0,0,0,0,0,0,0,0,0,0,0],"id":1,"left_children":[1,3,5,7,9,11,13,15,17,19,21,23,25,27,29,31,33,-1,-1,35,37,39,-1,41,43,45,-1,-1,-1,-1,-1,-1,47,-1,49,51,-1,53,55,-1,-1,57,-1,59,61,-1,-1,-1,63,-1,65,67,-1,69,-1,71,73,75,-1,-1,77,79,-1,81,83,85,87,89,91,-1,93,-1,-1,-1,95,-1,97,99,-1,-1,101,-1,-1,-1,-1,-1,-1,-1,-1,-1,-1,-1,-1,-1,-1,-1,-1,-1,-1,-1,-1,-1,-1],"loss_changes":[9.567949E1,2.9616009E1,4.2326824E1,3.9610764E1,2.3476599E1,2.7877426E1,2.537355E1,1.9649445E1,9.219483E0,1.9337961E1,1.2568321E1,1.6502579E1,9.816492E0,4.259861E0,1.07304735E1,1.0091759E1,2.1510426E1,0E0,0E0,1.6517027E1,2.1697256E1,6.4714584E0,0E0,2.0672512E1,1.2593117E1,6.1236887E0,0E0,0E0,0E0,0E0,0E0,0E0,8.079468E0,0E0,1.4440453E1,1.2426029E1,0E0,1.8719997E1,1.6160843E1,0E0,0E0,1.8234379E1,0E0,4.925171E0,1.3081896E1,0E0,0E0,0E0,4.277626E0,0E0,1.0991573E1,1.2145504E1,0E0,1.3427109E1,0E0,1.3524048E1,1.03531885E1,9.754147E0,0E0,0E0,5.4076233E0,1.0445915E1,0E0,2.5645676E0,4.23116E0,7.158798E0,8.627321E0,4.5147057E0,1.6278097E1,0E0,1.7311977E1,0E0,0E0,0E0,8.403498E0,0E0,8.4496155E0,1.2331696E0,0E0,0E0,7.0118484E0,0E0,0E0,0E0,0E0,0E0,0E0,0E0,0E0,0E0,0E0,0E0,0E0,0E0,0E0,0E0,0E0,0E0,0E0,0E0,0E0,0E0,0E0],"parents":[2147483647,0,0,1,1,2,2,3,3,4,4,5,5,6,6,7,7,8,8,9,9,10,10,11,11,12,12,13,13,14,14,15,15,16,16,19,19,20,20,21,21,23,23,24,24,25,25,32,32,34,34,35,35,37,37,38,38,41,41,43,43,44,44,48,48,50,50,51,51,53,53,55,55,56,56,57,57,60,60,61,61,63,63,64,64,65,65,66,66,67,67,68,68,70,70,74,74,76,76,77,77,80,80],"right_children":[2,4,6,8,10,12,14,16,18,20,22,24,26,28,30,32,34,-1,-1,36,38,40,-1,42,44,46,-1,-1,-1,-1,-1,-1,48,-1,50,52,-1,54,56,-1,-1,58,-1,60,62,-1,-1,-1,64,-1,66,68,-1,70,-1,72,74,76,-1,-1,78,80,-1,82,84,86,88,90,92,-1,94,-1,-1,-1,96,-1,98,100,-1,-1,102,-1,-1,-1,-1,-1,-1,-1,-1,-1,-1,-1,-1,-1,-1,-1,-1,-1,-1,-1,-1,-1,-1],"split_conditions":[9.785572E-2,-3.1502083E-2,5.7323568E-2,5.6965187E-2,1.0075845E0,6.416907E-2,9.133495E-2,1.097103E-1,1.2834668E-1,1.4542063E-1,6.5157986E-1,1.2654527E-1,2.0876827E-4,3.236873E-2,6.056818E-6,8.8378444E-2,6.7585975E-2,1.5049359E-2,-9.401439E-2,4.7439225E-2,3.6525226E-4,7.939133E-4,-9.225755E-3,5.6523405E-4,-1.6792846E-4,3.287671E-2,-4.522725E-2,3.8684607E-2,1.2489776E-1,2.603597E-2,-8.554825E-2,3.0476844E-3,-4.0828347E-2,-6.787295E-2,-2.4937335E-2,2.6194466E-2,8.154992E-2,2.0092735E-2,1.3156493E-1,4.087739E-2,1.3526359E-1,4.8849532E-1,8.349021E-2,1.1886129E-1,1.7060367E-2,1.0681668E-1,5.7659354E-3,1.8411752E-2,4.2561408E-2,-5.538714E-2,4.606503E-2,1.4279677E-1,5.468113E-2,-1.9725355E-4,-6.264049E-2,6.4174674E-2,-1.4628762E-3,-5.496011E-2,6.41891E-2,-2.8017865E-2,6.534857E-3,1.25605E-4,5.652803E-2,5.152018E0,-1.1415433E-6,-4.0590327E-2,7.3234434E-4,1.5645372E-2,2.4141267E-2,-2.4153577E-2,3.2129872E-3,1.1759429E-1,-2.4967087E-2,2.1913074E-2,-2.4784576E-2,2.3293527E-2,2.712677E-1,2.8207695E-2,-3.995628E-2,2.2871954E-2,-5.790784E-2,1.4194009E-1,6.5322965E-2,1.0572299E-1,1.3972545E-2,2.4549713E-2,1.0964954E-1,-5.3604793E-2,6.681033E-2,-1.1719089E-1,-3.906351E-2,8.203956E-2,-4.6123266E-2,2.5717808E-2,1.0723399E-1,1.6665898E-2,-8.5250765E-2,-9.5463805E-2,-5.981873E-3,-1.2182474E-1,-7.035932E-2,8.018014E-3,-8.290091E-2],"split_indices":[392,200,148,490,544,95,389,399,547,398,462,525,485,280,11,503,492,0,0,349,115,280,0,2,249,72,0,0,0,0,0,0,376,0,195,323,0,384,509,0,0,442,0,462,571,0,0,0,546,0,270,469,0,285,0,392,377,509,0,0,187,553,0,503,66,508,53,334,532,0,210,0,0,0,68,0,558,167,0,0,99,0,0,0,0,0,0,0,0,0,0,0,0,0,0,0,0,0,0,0,0,0,0],"split_type":[0,0,0,0,0,0,0,0,0,0,0,0,0,0,0,0,0,0,0,0,0,0,0,0,0,0,0,0,0,0,0,0,0,0,0,0,0,0,0,0,0,0,0,0,0,0,0,0,0,0,0,0,0,0,0,0,0,0,0,0,0,0,0,0,0,0,0,0,0,0,0,0,0,0,0,0,0,0,0,0,0,0,0,0,0,0,0,0,0,0,0,0,0,0,0,0,0,0,0,0,0,0,0],"sum_hessian":[5.951114E2,3.6311774E2,2.3199364E2,1.3313087E2,2.2998688E2,1.9673901E2,3.5254627E1,1.1612893E2,1.7001945E1,2.0267053E2,2.7316338E1,1.7788472E2,1.885429E1,1.7460365E1,1.7794262E1,5.802983E1,5.8099094E1,6.701143E0,1.0300802E1,7.359447E1,1.2907607E2,1.964372E1,7.6726174E0,5.5720963E1,1.2216376E2,1.3415142E1,5.4391475E0,5.9798045E0,1.148056E1,9.911561E0,7.8827014E0,5.7168417E0,5.2312992E1,8.647092E0,4.9452E1,6.7879265E1,5.715207E0,7.73538E1,5.172227E1,7.692897E0,1.1950824E1,4.829403E1,7.4269304E0,6.309289E1,5.9070866E1,7.716662E0,5.69848E0,5.4764056E0,4.6836586E1,5.197111E0,4.425489E1,6.1935215E1,5.944048E0,6.944004E1,7.9137516E0,1.3397309E1,3.8324963E1,4.1606873E1,6.687159E0,5.908592E0,5.71843E1,5.3890244E1,5.1806207E0,3.53969E1,1.1439686E1,3.2844387E1,1.1410503E1,2.292151E1,3.9013702E1,1.0145525E1,5.9294518E1,6.476964E0,6.9203453E0,9.177581E0,2.914738E1,5.9389486E0,3.5667923E1,4.9561672E1,7.6226254E0,6.916444E0,4.69738E1,2.9919775E1,5.477124E0,6.2222443E0,5.2174416E0,7.9590516E0,2.4885336E1,5.9454093E0,5.4650946E0,1.5519741E1,7.401769E0,5.7125196E0,3.3301186E1,2.998739E1,2.9307127E1,5.2073946E0,2.3939985E1,2.8030972E1,7.6369524E0,4.1436153E1,8.125522E0,5.181703E0,4.17921E1],"tree_param":{"num_deleted":"0","num_feature":"573","num_nodes":"103","size_leaf_vector":"1"}},{"base_weights":[3.2291372E-4,3.567658E-1,-3.9498177E-1,4.7088876E-1,-4.5688254E-1,-5.7087064E-1,5.9847206E-1,9.395776E-1,1.937412E-1,7.486982E-2,-7.250982E-1,-6.804103E-1,2.737649E-1,1.1483672E0,-4.1494432E-1,2.3817424E-1,1.1249902E0,-4.5497376E-1,3.325872E-1,5.720883E-2,-1.1705627E0,-4.472921E-1,-1.0419213E0,9.463423E-1,-4.0165195E-1,1.599159E0,5.8915424E-3,2.5421383E-2,-1.0388786E-1,-3.43173E-1,9.679607E-2,1.2305868E0,-5.148678E-3,6.456358E-1,-1.0411056E0,1.0190262E-3,6.9234836E-1,-6.127914E-2,5.4265995E-2,-1.09328784E-1,-2.0612355E-2,3.6876962E-1,-6.4101243E-1,-4.2065305E-1,-1.2890404E0,1.0798272E-1,1.5805736E-2,9.817155E-3,-8.047311E-2,5.4624025E-2,1.3982393E-1,-9.6877664E-2,1.9483462E-2,1.4604273E0,5.3486454E-1,-8.982279E-3,9.793732E-2,-1.10498E-1,1.5429174E-2,-1.2557102E0,2.5726384E-1,1.4325655E-1,1.1699157E0,-5.0062574E-2,7.967424E-1,-1.1272412E-1,-9.1488266E-1,-9.09561E-2,1.6563484E-1,-1.3952054E0,-1.1211814E-2,1.6002012E0,3.2834552E-2,-5.0345115E-2,1.0656296E0,-5.032205E-2,-1.16465956E-1,-7.3232755E-2,4.356825E-1,-8.119241E-1,6.280648E-1,6.848471E-1,1.6030871E0,-1.070307E-2,1.2110982E0,-6.694324E-1,7.128089E-1,-1.0529356E0,3.749355E-2,8.506169E-2,-4.988381E-2,-1.4931791E0,-5.113401E-2,1.2835874E-1,5.277024E-2,1.2045198E-1,3.025538E-2,1.0422464E-1,1.5168785E-2,-6.805925E-3,-1.0351244E-1,9.803025E-2,-1.3815174E-2,6.1393497E-3,1.1040557E-1,1.4220192E-1,7.691683E-2,4.6019837E-2,1.2133177E-1,2.979796E-2,-8.144428E-2,1.0044876E-1,9.22981E-3,-1.6032154E-3,-8.8230595E-2,-6.2905155E-2,-1.17156774E-1],"categories":[],"categories_nodes":[],"categories_segments":[],"categories_sizes":[],"default_left":[0,0,0,0,0,0,0,0,0,0,0,0,0,0,0,0,0,0,0,0,0,0,0,0,0,0,0,0,0,0,0,0,0,0,0,0,0,0,0,0,0,0,0,0,0,0,0,0,0,0,0,0,0,0,0,0,0,0,0,0,0,0,0,0,0,0,0,0,0,0,0,0,0,0,0,0,0,0,0,0,0,0,0,0,0,0,0,0,0,0,0,0,0,0,0,0,0,0,0,0,0,0,0,0,0,0,0,0,0,0,0,0,0,0,0,0,0],"id":2,"left_children":[1,3,5,7,9,11,13,15,17,-1,19,21,23,25,27,29,31,33,35,37,39,41,43,45,47,49,-1,-1,-1,51,-1,53,-1,55,57,59,61,-1,-1,-1,-1,63,65,67,69,-1,-1,-1,-1,-1,-1,-1,-1,71,73,-1,-1,-1,-1,75,77,79,81,-1,83,85,87,-1,89,91,-1,93,-1,-1,95,-1,-1,-1,97,99,101,103,105,-1,107,109,111,113,-1,-1,-1,115,-1,-1,-1,-1,-1,-1,-1,-1,-1,-1,-1,-1,-1,-1,-1,-1,-1,-1,-1,-1,-1,-1,-1,-1,-1],"loss_changes":[8.3804504E1,2.9256336E1,4.961931E1,3.551033E1,1.5937012E1,2.240081E1,2.4387527E1,1.2976929E1,1.5817563E1,0E0,1.1738464E1,1.746978E1,1.3225464E1,1.3416332E1,1.2046312E1,1.4247109E1,1.0203705E1,2.0725927E1,1.7157906E1,8.225536E0,5.1003075E0,2.096828E1,1.2151985E1,4.947299E0,5.4354463E0,3.192028E0,0E0,0E0,0E0,9.09951E0,0E0,1.1021629E1,0E0,5.926799E0,1.1439964E1,2.475133E1,1.7923012E1,0E0,0E0,0E0,0E0,1.1971132E1,1.5283581E1,1.1817244E1,6.889328E0,0E0,0E0,0E0,0E0,0E0,0E0,0E0,0E0,7.147278E0,1.3459246E1,0E0,0E0,0E0,0E0,1.2201366E0,1.4477463E1,1.58982725E1,6.625553E0,0E0,7.4561625E0,1.7688284E1,1.4178745E1,0E0,1.3027918E1,2.7248993E0,0E0,3.5761337E0,0E0,0E0,4.437458E0,0E0,0E0,0E0,1.2293085E1,4.63832E0,1.27089615E1,8.939361E0,1.2144012E0,0E0,2.1877346E0,1.05976925E1,5.5870185E0,8.127296E0,0E0,0E0,0E0,7.753372E-1,0E0,0E0,0E0,0E0,0E0,0E0,0E0,0E0,0E0,0E0,0E0,0E0,0E0,0E0,0E0,0E0,0E0,0E0,0E0,0E0,0E0,0E0,0E0,0E0,0E0],"parents":[2147483647,0,0,1,1,2,2,3,3,4,4,5,5,6,6,7,7,8,8,10,10,11,11,12,12,13,13,14,14,15,15,16,16,17,17,18,18,19,19,20,20,21,21,22,22,23,23,24,24,25,25,29,29,31,31,33,33,34,34,35,35,36,36,41,41,42,42,43,43,44,44,53,53,54,54,59,59,60,60,61,61,62,62,64,64,65,65,66,66,68,68,69,69,71,71,74,74,78,78,79,79,80,80,81,81,82,82,84,84,85,85,86,86,87,87,91,91],"right_children":[2,4,6,8,10,12,14,16,18,-1,20,22,24,26,28,30,32,34,36,38,40,42,44,46,48,50,-1,-1,-1,52,-1,54,-1,56,58,60,62,-1,-1,-1,-1,64,66,68,70,-1,-1,-1,-1,-1,-1,-1,-1,72,74,-1,-1,-1,-1,76,78,80,82,-1,84,86,88,-1,90,92,-1,94,-1,-1,96,-1,-1,-1,98,100,102,104,106,-1,108,110,112,114,-1,-1,-1,116,-1,-1,-1,-1,-1,-1,-1,-1,-1,-1,-1,-1,-1,-1,-1,-1,-1,-1,-1,-1,-1,-1,-1,-1,-1],"split_conditions":[8.195963E-2,7.158805E-3,5.7323568E-2,-3.2344434E-2,-3.0579712E-2,6.533866E-2,1.656753E-1,8.671407E-2,-1.15973195E-2,7.486982E-2,2.1881793E-1,1.7972636E-1,1.7498098E-1,5.607336E-1,6.056818E-6,-2.5471698E-2,6.022187E-2,1.1254771E-1,2.6499485E-3,-1.4003031E-3,-1.198678E-4,-2.5679823E-2,-1.0890513E-2,1.2738935E-3,-9.06259E-3,-1.5108748E-2,5.8915424E-3,2.5421383E-2,-1.0388786E-1,-2.3005637E-3,9.679607E-2,9.097762E-2,-5.148678E-3,-1.857306E-3,2.3902303E-5,1.9861212E-4,1.6979738E-1,-6.127914E-2,5.4265995E-2,-1.09328784E-1,-2.0612355E-2,-6.318345E-4,-1.711271E-1,-7.846806E-3,2.6143313E-4,1.0798272E-1,1.5805736E-2,9.817155E-3,-8.047311E-2,5.4624025E-2,1.3982393E-1,-9.6877664E-2,1.9483462E-2,3.4698532E-3,-4.6478954E-4,-8.982279E-3,9.793732E-2,-1.10498E-1,1.5429174E-2,2.26896E-4,-6.57944E-3,-1.509434E-3,8.80452E-3,-5.0062574E-2,-5.549483E-4,3.4291224E-5,1.114886E-1,-9.09561E-2,-7.6269166E-4,4.0875528E-2,-1.1211814E-2,3.286319E-2,3.2834552E-2,-5.0345115E-2,1.0632822E-2,-5.032205E-2,-1.16465956E-1,-7.3232755E-2,-2.0269059E-2,-5.4881357E-6,3.191132E-3,4.362098E-3,9.460543E-3,-1.070307E-2,1.2318924E-1,-4.2503042E-4,-1.874836E-4,9.651372E-2,3.749355E-2,8.506169E-2,-4.988381E-2,-2.4711003E-3,-5.113401E-2,1.2835874E-1,5.277024E-2,1.2045198E-1,3.025538E-2,1.0422464E-1,1.5168785E-2,-6.805925E-3,-1.0351244E-1,9.803025E-2,-1.3815174E-2,6.1393497E-3,1.1040557E-1,1.4220192E-1,7.691683E-2,4.6019837E-2,1.2133177E-1,2.979796E-2,-8.144428E-2,1.0044876E-1,9.22981E-3,-1.6032154E-3,-8.8230595E-2,-6.2905155E-2,-1.17156774E-1],"split_indices":[392,427,148,200,566,95,392,492,395,0,492,518,246,461,11,517,238,486,510,67,411,31,97,490,440,566,0,0,0,103,0,423,0,390,107,523,499,0,0,0,0,258,454,48,529,0,0,0,0,0,0,0,0,553,64,0,0,0,0,146,292,69,210,0,249,96,435,0,230,167,0,395,0,0,188,0,0,0,213,43,359,373,60,0,568,218,353,544,0,0,0,349,0,0,0,0,0,0,0,0,0,0,0,0,0,0,0,0,0,0,0,0,0,0,0,0,0],"split_type":[0,0,0,0,0,0,0,0,0,0,0,0,0,0,0,0,0,0,0,0,0,0,0,0,0,0,0,0,0,0,0,0,0,0,0,0,0,0,0,0,0,0,0,0,0,0,0,0,0,0,0,0,0,0,0,0,0,0,0,0,0,0,0,0,0,0,0,0,0,0,0,0,0,0,0,0,0,0,0,0,0,0,0,0,0,0,0,0,0,0,0,0,0,0,0,0,0,0,0,0,0,0,0,0,0,0,0,0,0,0,0,0,0,0,0,0,0],"sum_hessian":[5.9276495E2,3.117553E2,2.8100964E2,2.737765E2,3.7978844E1,2.3910243E2,4.1907207E1,1.0084524E2,1.7293124E2,5.4872212E0,3.2491623E1,2.118255E2,2.727693E1,2.7080015E1,1.4827192E1,2.1562046E1,7.9283195E1,3.008616E1,1.4284508E2,1.2104957E1,2.0386665E1,1.3014168E2,8.168382E1,1.346621E1,1.381072E1,1.8703878E1,8.376136E0,8.709946E0,6.1172466E0,1.4323791E1,7.2382555E0,7.281094E1,6.4722476E0,1.0419471E1,1.9666689E1,7.485707E1,6.798801E1,5.1377797E0,6.9671774E0,1.4962552E1,5.424113E0,2.479351E1,1.0534817E2,2.401395E1,5.766987E1,7.4868712E0,5.979339E0,8.15028E0,5.66044E0,5.240322E0,1.3463557E1,5.1227264E0,9.201065E0,5.3903946E1,1.8907E1,5.2043653E0,5.215105E0,1.4469374E1,5.197315E0,1.201757E1,6.2839504E1,3.223044E1,3.575757E1,7.083125E0,1.7710386E1,3.6449554E1,6.889861E1,9.759718E0,1.4254232E1,5.2549778E1,5.1200895E0,4.6925377E1,6.9785676E0,5.6967487E0,1.321025E1,5.147163E0,6.8704066E0,7.374534E0,5.546497E1,1.0624017E1,2.160642E1,1.8085875E1,1.7671692E1,5.6212273E0,1.2089158E1,2.188215E1,1.4567405E1,6.300635E1,5.892258E0,6.4127736E0,7.841459E0,4.52435E1,7.30628E0,4.093714E1,5.988238E0,6.4894495E0,6.7208004E0,9.930064E0,4.5534904E1,5.1930294E0,5.4309874E0,1.14368E1,1.01696205E1,1.0866493E1,7.2193813E0,1.0209942E1,7.461751E0,5.9118304E0,6.177328E0,6.1574473E0,1.5724703E1,6.4472456E0,8.120159E0,6.8607564E0,5.6145596E1,5.5649433E0,3.9678555E1],"tree_param":{"num_deleted":"0","num_feature":"573","num_nodes":"117","size_leaf_vector":"1"}},{"base_weights":[7.559316E-4,3.3250445E-1,-3.6899188E-1,4.385509E-1,-4.2888653E-1,-5.341409E-1,5.584053E-1,8.7564903E-1,1.8045916E-1,7.000573E-2,-6.8330735E-1,-6.373992E-1,2.5557873E-1,1.2627751E0,-1.5492834E-1,2.21848E-1,1.0484012E0,-6.6879787E-3,6.1768603E-1,5.2369982E-2,-1.1080366E0,-7.090445E-1,3.999926E-1,6.605218E-1,-5.8502745E-2,3.165561E-2,1.1289772E-1,6.5708555E-2,-7.1292883E-1,-3.2435495E-1,9.053526E-2,1.1471982E0,-4.815067E-3,-3.0202302E-1,4.0048897E-1,1.0371156E0,1.4003605E-1,-5.7910964E-2,5.0604045E-2,-1.0394782E-1,-1.934798E-2,3.6607098E-2,-7.7104574E-1,-4.98237E-2,9.96377E-2,-3.1217903E-2,1.1703161E0,-9.178854E-2,-1.0482743E-2,-9.214089E-2,1.8146466E-2,1.353892E0,4.7687125E-1,-6.424624E-1,3.7918448E-1,-5.542554E-1,7.092687E-1,5.7574483E-3,1.2555712E0,-2.694362E-1,6.949028E-2,-1.2134281E0,-6.1199415E-1,1.20442465E-1,2.498415E-2,1.4826306E0,7.0730597E-3,-5.1700864E-2,9.673243E-1,1.9036971E-2,-8.523871E-1,9.5356053E-1,-2.9883595E-2,3.580409E-2,-9.618837E-2,-1.8412757E-1,1.0516005E0,1.5546851E0,2.757993E-2,-6.744137E-2,2.2810465E-2,-1.3364245E0,-9.977749E-3,-9.3551174E-2,-8.198508E-1,6.424724E-2,1.1881445E-1,1.0417486E-1,1.7902816E-2,-3.3868447E-2,-1.0103037E-1,2.7836662E-2,1.2044934E-1,-7.1841516E-2,5.0971653E-2,-2.5733901E-2,1.030987E-1,7.058163E-2,1.3171367E-1,-2.2735314E-2,-1.1156524E-1,-4.353285E-2,4.0556885E-2,-6.893231E-2,4.5945153E-2],"categories":[],"categories_nodes":[],"categories_segments":[],"categories_sizes":[],"default_left":[0,0,0,0,0,0,0,0,0,0,0,0,0,0,0,0,0,0,0,0,0,0,0,0,0,0,0,0,0,0,0,0,0,0,0,0,0,0,0,0,0,0,0,0,0,0,0,0,0,0,0,0,0,0,0,0,0,0,0,0,0,0,0,0,0,0,0,0,0,0,0,0,0,0,0,0,0,0,0,0,0,0,0,0,0,0,0,0,0,0,0,0,0,0,0,0,0,0,0,0,0,0,0,0,0],"id":3,"left_children":[1,3,5,7,9,11,13,15,17,-1,19,21,23,25,27,29,31,33,35,37,39,41,43,45,-1,-1,-1,-1,47,49,-1,51,-1,53,55,57,59,-1,-1,-1,-1,-1,61,-1,-1,-1,63,-1,-1,-1,-1,65,67,69,71,73,75,-1,77,79,-1,81,83,-1,-1,85,-1,-1,87,-1,89,91,-1,-1,-1,93,95,97,-1,-1,-1,99,-1,101,103,-1,-1,-1,-1,-1,-1,-1,-1,-1,-1,-1,-1,-1,-1,-1,-1,-1,-1,-1,-1],"loss_changes":[7.251976E1,2.5348873E1,4.312043E1,3.075399E1,1.4016941E1,1.9557686E1,2.1676487E1,1.1227936E1,1.420462E1,0E0,1.04018755E1,1.5938164E1,1.2348139E1,3.7729225E0,1.33574295E1,1.2487307E1,8.866676E0,1.4854069E1,1.0278177E1,7.228505E0,4.6116467E0,1.5026619E1,1.4960747E1,1.1919119E1,0E0,0E0,0E0,0E0,4.1955447E0,8.105034E0,0E0,9.541115E0,0E0,1.6843977E1,1.5704109E1,5.6826878E0,8.456133E0,0E0,0E0,0E0,0E0,0E0,1.2488716E1,0E0,0E0,0E0,4.715006E0,0E0,0E0,0E0,0E0,8.884438E0,1.1460747E1,9.266441E0,1.1314708E1,1.0569557E1,1.2330036E1,0E0,5.370693E0,6.60664E0,0E0,6.2953186E0,1.504607E1,0E0,0E0,1.8487091E0,0E0,0E0,3.8778238E0,0E0,7.1642475E0,4.866396E0,0E0,0E0,0E0,8.566866E0,1.3465122E1,3.7836838E-1,0E0,0E0,0E0,6.3604507E0,0E0,1.3065978E1,1.4785973E1,0E0,0E0,0E0,0E0,0E0,0E0,0E0,0E0,0E0,0E0,0E0,0E0,0E0,0E0,0E0,0E0,0E0,0E0,0E0,0E0],"parents":[2147483647,0,0,1,1,2,2,3,3,4,4,5,5,6,6,7,7,8,8,10,10,11,11,12,12,13,13,14,14,15,15,16,16,17,17,18,18,19,19,20,20,21,21,22,22,23,23,28,28,29,29,31,31,33,33,34,34,35,35,36,36,42,42,46,46,51,51,52,52,53,53,54,54,55,55,56,56,58,58,59,59,61,61,62,62,65,65,68,68,70,70,71,71,75,75,76,76,77,77,81,81,83,83,84,84],"right_children":[2,4,6,8,10,12,14,16,18,-1,20,22,24,26,28,30,32,34,36,38,40,42,44,46,-1,-1,-1,-1,48,50,-1,52,-1,54,56,58,60,-1,-1,-1,-1,-1,62,-1,-1,-1,64,-1,-1,-1,-1,66,68,70,72,74,76,-1,78,80,-1,82,84,-1,-1,86,-1,-1,88,-1,90,92,-1,-1,-1,94,96,98,-1,-1,-1,100,-1,102,104,-1,-1,-1,-1,-1,-1,-1,-1,-1,-1,-1,-1,-1,-1,-1,-1,-1,-1,-1,-1],"split_conditions":[8.195963E-2,7.158805E-3,5.7323568E-2,-3.2344434E-2,-3.0579712E-2,6.533866E-2,8.498128E-2,8.671407E-2,1.5887892E-2,7.000573E-2,2.1881793E-1,5.3384656E-1,1.36407865E-2,-8.896421E-3,7.779444E-2,-2.5471698E-2,6.022187E-2,1.6578534E-3,2.134129E-3,-1.4003031E-3,-1.198678E-4,-1.2481133E-1,1.7949337E-2,-2.0025587E-3,-5.8502745E-2,3.165561E-2,1.1289772E-1,6.5708555E-2,3.4350735E-1,-2.3005637E-3,9.053526E-2,9.471682E-2,-4.815067E-3,3.9861832E0,-7.953193E-3,-4.5941807E-3,-9.196032E-3,-5.7910964E-2,5.0604045E-2,-1.0394782E-1,-1.934798E-2,3.6607098E-2,-1.2313172E-2,-4.98237E-2,9.96377E-2,-3.1217903E-2,3.8808899E-4,-9.178854E-2,-1.0482743E-2,-9.214089E-2,1.8146466E-2,2.2567775E-2,-4.6478954E-4,-5.437157E-3,3.1115027E-2,-4.9831984E-3,-1.9574085E-4,5.7574483E-3,2.7309085E-4,1.5567228E-3,6.949028E-2,1.9813885E-3,1.0787635E-1,1.20442465E-1,2.498415E-2,-4.7269717E-2,7.0730597E-3,-5.1700864E-2,-5.663255E-2,1.9036971E-2,1.5947302E-1,5.2826866E-3,-2.9883595E-2,3.580409E-2,-9.618837E-2,7.2549507E-3,-7.928109E-3,-1.2249479E-4,2.757993E-2,-6.744137E-2,2.2810465E-2,-6.017309E-2,-9.977749E-3,6.048399E-3,6.673521E-2,6.424724E-2,1.1881445E-1,1.0417486E-1,1.7902816E-2,-3.3868447E-2,-1.0103037E-1,2.7836662E-2,1.2044934E-1,-7.1841516E-2,5.0971653E-2,-2.5733901E-2,1.030987E-1,7.058163E-2,1.3171367E-1,-2.2735314E-2,-1.1156524E-1,-4.353285E-2,4.0556885E-2,-6.893231E-2,4.5945153E-2],"split_indices":[392,427,148,200,566,95,389,492,149,0,492,442,69,142,475,517,238,338,159,67,411,341,202,215,0,0,0,0,519,103,0,423,0,457,163,301,411,0,0,0,0,0,109,0,0,0,96,0,0,0,0,115,64,557,392,347,205,0,184,523,0,333,392,0,0,390,0,0,72,0,486,245,0,0,0,433,328,17,0,0,0,316,0,195,63,0,0,0,0,0,0,0,0,0,0,0,0,0,0,0,0,0,0,0,0],"split_type":[0,0,0,0,0,0,0,0,0,0,0,0,0,0,0,0,0,0,0,0,0,0,0,0,0,0,0,0,0,0,0,0,0,0,0,0,0,0,0,0,0,0,0,0,0,0,0,0,0,0,0,0,0,0,0,0,0,0,0,0,0,0,0,0,0,0,0,0,0,0,0,0,0,0,0,0,0,0,0,0,0,0,0,0,0,0,0,0,0,0,0,0,0,0,0,0,0,0,0,0,0,0,0,0,0],"sum_hessian":[5.892097E2,3.1061636E2,2.7859335E2,2.730149E2,3.760147E1,2.3684119E2,4.1752155E1,1.0046944E2,1.7254547E2,5.4973183E0,3.2104153E1,2.0962495E2,2.7216232E1,2.0620516E1,2.113164E1,2.1475832E1,7.899361E1,1.21517E2,5.102847E1,1.2071572E1,2.003258E1,1.9637895E2,1.3246002E1,1.982609E1,7.3901424E0,5.2303386E0,1.5390178E1,7.220291E0,1.3911349E1,1.4248089E1,7.2277436E0,7.2522644E1,6.4709635E0,7.058111E1,5.093589E1,2.6546457E1,2.4482012E1,5.0888963E0,6.9826765E0,1.4621536E1,5.411044E0,9.331478E0,1.8704747E2,6.304257E0,6.9417458E0,6.429518E0,1.3396572E1,6.754801E0,7.1565485E0,5.036774E0,9.211314E0,5.465129E1,1.7871351E1,4.7099567E1,2.3481543E1,1.2253421E1,3.868247E1,5.1700187E0,2.137644E1,1.6532303E1,7.9497104E0,4.7712345E1,1.3933513E2,8.207896E0,5.188676E0,4.9422836E1,5.2284527E0,5.170717E0,1.2700635E1,8.898338E0,3.820123E1,1.3375715E1,1.0105826E1,5.21308E0,7.040341E0,1.0844169E1,2.7838299E1,1.542773E1,5.9487095E0,7.6094456E0,8.922856E0,4.262298E1,5.0893655E0,4.0290726E1,9.90444E1,8.216021E0,4.1206818E1,7.4707522E0,5.2298827E0,2.2159674E1,1.6041555E1,7.8960404E0,5.479675E0,5.66257E0,5.1815987E0,5.223675E0,2.2614624E1,5.2156296E0,1.02121E1,5.821594E0,3.6801384E1,2.2842264E1,1.744846E1,9.296196E1,6.082441E0],"tree_param":{"num_deleted":"0","num_feature":"573","num_nodes":"105","size_leaf_vector":"1"}},{"base_weights":[1.4348959E-3,3.2201582E-1,-3.3458635E-1,4.5410612E-1,-2.9390776E-1,-5.7379633E-1,2.0243765E-1,8.929364E-1,1.9638693E-1,-7.3664486E-1,5.411553E-1,-7.0728016E-1,2.855135E-1,-5.751391E-1,5.540925E-1,9.773951E-1,-3.3132847E-2,7.309862E-1,-1.1646019E-2,-1.0310874E0,5.075586E-3,1.1005594E0,-3.77447E-2,1.650045E-1,-7.842094E-1,-1.0299309E-1,7.856431E-2,5.5185366E-2,-9.9530035E-1,-4.6405748E-2,7.395097E-1,-4.881032E-3,1.0943943E0,-3.447278E-2,1.0201318E0,-1.8487261E-1,7.322153E-1,-3.725133E-1,-1.07347675E-1,1.2962754E-1,2.6098847E-2,7.200302E-2,-3.2406326E-2,-4.3293047E-1,-9.81591E-1,-6.33782E-2,4.013682E-1,-2.5029588E-2,-1.12542346E-1,1.0294759E0,-7.728583E-2,4.3945512E-1,1.2572082E0,4.9634382E-2,-6.0336042E-2,-2.7957112E-3,1.2871966E0,-5.6139714E-1,2.4946623E-1,1.3161805E0,-2.9180748E-3,4.2602226E-2,-9.4990246E-2,-7.256567E-1,2.510861E-1,-1.0599501E0,-1.1308895E-2,7.88466E-2,-2.201386E-2,1.298712E0,3.36292E-1,-4.597745E-2,5.197681E-2,-1.3972382E-2,9.89634E-2,1.212725E-1,1.0064852E0,1.5181844E0,3.3859275E-2,3.7892934E-2,-8.70574E-1,-4.9878962E-2,1.0432107E0,5.26996E-2,1.2466216E-1,-9.880849E-1,5.099543E-2,6.1632387E-2,-3.9787926E-2,-1.1433425E0,-1.9059848E-2,2.021275E-2,1.5710318E0,7.851571E-2,-2.6550507E-2,5.685267E-3,8.603563E-2,5.988298E-2,1.3036595E-1,4.1826736E-2,-6.351037E-2,-8.022863E-2,3.8458821E-3,-6.8402305E-2,1.9121243E-2,2.7514284E-2,1.1824944E-1,-2.936493E-4,-9.022486E-2,6.740021E-2,-5.884035E-2,-2.2287767E-2,-9.2927806E-2,4.874123E-2,1.3574174E-1],"categories":[],"categories_nodes":[],"categories_segments":[],"categories_sizes":[],"default_left":[0,0,0,0,0,0,0,0,0,0,0,0,0,0,0,0,0,0,0,0,0,0,0,0,0,0,0,0,0,0,0,0,0,0,0,0,0,0,0,0,0,0,0,0,0,0,0,0,0,0,0,0,0,0,0,0,0,0,0,0,0,0,0,0,0,0,0,0,0,0,0,0,0,0,0,0,0,0,0,0,0,0,0,0,0,0,0,0,0,0,0,0,0,0,0,0,0,0,0,0,0,0,0,0,0,0,0,0,0,0,0,0,0,0,0],"id":4,"left_children":[1,3,5,7,9,11,13,15,17,19,21,23,25,27,29,31,-1,33,35,37,-1,39,-1,41,43,45,-1,-1,47,-1,49,-1,51,53,55,57,59,61,-1,-1,-1,-1,-1,63,65,-1,67,-1,-1,69,71,73,75,-1,-1,-1,77,79,81,83,-1,-1,-1,85,87,89,-1,-1,-1,91,93,-1,-1,-1,-1,-1,95,97,-1,99,101,103,105,-1,-1,107,109,-1,-1,111,-1,-1,113,-1,-1,-1,-1,-1,-1,-1,-1,-1,-1,-1,-1,-1,-1,-1,-1,-1,-1,-1,-1,-1,-1],"loss_changes":[6.320556E1,2.4562696E1,3.691739E1,2.7831348E1,2.0226803E1,2.2965485E1,2.4660734E1,1.0728668E1,1.7502052E1,8.470545E0,1.174745E1,1.1675301E1,8.21813E0,1.6272335E1,1.3898777E1,1.0587158E1,0E0,9.791101E0,1.485298E1,6.327095E0,0E0,5.441533E0,0E0,7.4266014E0,1.0550148E1,7.4706683E0,0E0,0E0,6.7830963E0,0E0,1.2828075E1,0E0,7.7195053E0,7.530281E0,9.092075E0,1.5421358E1,9.857037E0,1.0128989E1,0E0,0E0,0E0,0E0,0E0,1.1942439E1,6.386444E0,0E0,5.738078E0,0E0,0E0,6.9900627E0,6.6286397E0,9.597987E0,3.928131E0,0E0,0E0,0E0,4.255932E0,9.36392E0,1.052603E1,1.4684906E0,0E0,0E0,0E0,8.486006E0,8.61862E0,5.8731155E0,0E0,0E0,0E0,7.511841E0,6.4931335E0,0E0,0E0,0E0,0E0,0E0,5.0111847E0,1.7209511E0,0E0,8.794413E0,6.161125E0,8.895819E0,3.7935944E0,0E0,0E0,6.548874E0,8.781989E0,0E0,0E0,6.3392944E0,0E0,0E0,3.7042542E0,0E0,0E0,0E0,0E0,0E0,0E0,0E0,0E0,0E0,0E0,0E0,0E0,0E0,0E0,0E0,0E0,0E0,0E0,0E0,0E0,0E0,0E0],"parents":[2147483647,0,0,1,1,2,2,3,3,4,4,5,5,6,6,7,7,8,8,9,9,10,10,11,11,12,12,13,13,14,14,15,15,17,17,18,18,19,19,21,21,23,23,24,24,25,25,28,28,30,30,32,32,33,33,34,34,35,35,36,36,37,37,43,43,44,44,46,46,49,49,50,50,51,51,52,52,56,56,57,57,58,58,59,59,63,63,64,64,65,65,69,69,70,70,76,76,77,77,79,79,80,80,81,81,82,82,85,85,86,86,89,89,92,92],"right_children":[2,4,6,8,10,12,14,16,18,20,22,24,26,28,30,32,-1,34,36,38,-1,40,-1,42,44,46,-1,-1,48,-1,50,-1,52,54,56,58,60,62,-1,-1,-1,-1,-1,64,66,-1,68,-1,-1,70,72,74,76,-1,-1,-1,78,80,82,84,-1,-1,-1,86,88,90,-1,-1,-1,92,94,-1,-1,-1,-1,-1,96,98,-1,100,102,104,106,-1,-1,108,110,-1,-1,112,-1,-1,114,-1,-1,-1,-1,-1,-1,-1,-1,-1,-1,-1,-1,-1,-1,-1,-1,-1,-1,-1,-1,-1,-1],"split_conditions":[1.0582942E-1,4.7576404E-3,1.3734236E-2,-3.1502083E-2,1.3088012E-2,2.510701E0,4.7876623E-1,1.6908646E0,9.657402E-2,2.436449E-1,3.319892E-2,1.4005922E-2,1.5375689E-1,9.20211E-3,-2.9662326E-2,-1.9692774E-3,-3.3132847E-2,-3.3646976E-4,1.0075845E0,3.442593E-1,5.075586E-3,-2.3280178E-5,-3.77447E-2,-6.958387E-2,-7.062506E-3,-2.0035643E-3,7.856431E-2,5.5185366E-2,-6.764562E-2,-4.6405748E-2,1.1819894E-3,-4.881032E-3,8.424279E-2,1.4270225E-2,-3.752095E-2,5.4323004E-6,4.8392868E-1,-1.0626331E-2,-1.07347675E-1,1.2962754E-1,2.6098847E-2,7.200302E-2,-3.2406326E-2,2.1552991E-2,1.1219635E-1,-6.33782E-2,-6.371225E-5,-2.5029588E-2,-1.12542346E-1,1.4634885E-1,6.18598E-4,-2.5471698E-2,-9.536959E-4,4.9634382E-2,-6.0336042E-2,-2.7957112E-3,3.0079067E-3,-4.12162E-2,3.8573924E-3,-7.0717104E-4,-2.9180748E-3,4.2602226E-2,-9.4990246E-2,1.5663913E-2,1.9136515E-2,1.4380918E-2,-1.1308895E-2,7.88466E-2,-2.201386E-2,1.3383309E-2,-1.283594E-4,-4.597745E-2,5.197681E-2,-1.3972382E-2,9.89634E-2,1.212725E-1,-6.1178084E-2,-1.3520006E-2,3.3859275E-2,2.6163043E-4,6.885636E-4,-3.7119435E-7,1.07407264E-4,5.26996E-2,1.2466216E-1,2.1663837E-1,7.0685763E-3,6.1632387E-2,-3.9787926E-2,2.5037296E-2,-1.9059848E-2,2.021275E-2,-1.0381685E-2,7.851571E-2,-2.6550507E-2,5.685267E-3,8.603563E-2,5.988298E-2,1.3036595E-1,4.1826736E-2,-6.351037E-2,-8.022863E-2,3.8458821E-3,-6.8402305E-2,1.9121243E-2,2.7514284E-2,1.1824944E-1,-2.936493E-4,-9.022486E-2,6.740021E-2,-5.884035E-2,-2.2287767E-2,-9.2927806E-2,4.874123E-2,1.3574174E-1],"split_indices":[518,553,237,200,500,481,457,547,455,496,225,561,561,437,55,243,0,333,544,462,0,445,0,517,335,219,0,0,391,0,28,0,492,265,341,113,462,72,0,0,0,0,0,437,120,0,99,0,0,229,2,517,184,0,0,0,75,188,331,99,0,0,0,266,86,156,0,0,0,560,102,0,0,0,0,0,73,14,0,407,130,29,320,0,0,393,470,0,0,549,0,0,136,0,0,0,0,0,0,0,0,0,0,0,0,0,0,0,0,0,0,0,0,0,0],"split_type":[0,0,0,0,0,0,0,0,0,0,0,0,0,0,0,0,0,0,0,0,0,0,0,0,0,0,0,0,0,0,0,0,0,0,0,0,0,0,0,0,0,0,0,0,0,0,0,0,0,0,0,0,0,0,0,0,0,0,0,0,0,0,0,0,0,0,0,0,0,0,0,0,0,0,0,0,0,0,0,0,0,0,0,0,0,0,0,0,0,0,0,0,0,0,0,0,0,0,0,0,0,0,0,0,0,0,0,0,0,0,0,0,0,0,0],"sum_hessian":[5.8474677E2,2.9927002E2,2.8547675E2,2.4663884E2,5.263118E1,1.9745476E2,8.802199E1,9.034297E1,1.5629587E2,3.4472347E1,1.815883E1,1.7105956E2,2.6395195E1,2.7213085E1,6.0808907E1,8.521818E1,5.124798E0,4.3078846E1,1.13217026E2,2.502818E1,9.44417E0,1.1790128E1,6.368703E0,1.3770762E1,1.572888E2,1.8054869E1,8.340326E0,6.4226255E0,2.079046E1,7.982085E0,5.282682E1,8.643897E0,7.657428E1,1.2052608E1,3.1026237E1,9.2441246E1,2.0775774E1,1.0190302E1,1.4837877E1,5.7209945E0,6.0691338E0,5.645628E0,8.125134E0,5.7733757E1,9.9555046E1,7.0325894E0,1.1022279E1,9.721726E0,1.1068733E1,3.8794285E1,1.4032536E1,1.598236E1,6.059192E1,6.403188E0,5.6494193E0,6.4295783E0,2.4596659E1,4.9359447E1,4.3081802E1,1.1420378E1,9.355396E0,5.1436467E0,5.0466547E0,4.038853E1,1.7345226E1,9.072255E1,8.832493E0,5.4303956E0,5.591883E0,2.7312449E1,1.1481837E1,8.396786E0,5.63575E0,9.801462E0,6.1808977E0,2.2646963E1,3.7944954E1,1.8630774E1,5.965885E0,1.7097029E1,3.226242E1,3.1964266E1,1.1117536E1,5.2109222E0,6.209456E0,2.9984598E1,1.0403933E1,9.995566E0,7.3496594E0,8.183479E1,8.887759E0,6.130901E0,2.1181547E1,5.40325E0,6.078587E0,5.1838593E0,3.2761097E1,5.445744E0,1.3185029E1,1.1002328E1,6.0946994E0,2.6399199E1,5.863222E0,7.8291183E0,2.4135147E1,5.6463256E0,5.47121E0,5.5566764E0,2.4427921E1,5.1269364E0,5.276996E0,8.731631E0,7.310316E1,5.127662E0,1.6053885E1],"tree_param":{"num_deleted":"0","num_feature":"573","num_nodes":"115","size_leaf_vector":"1"}},{"base_weights":[2.2438243E-3,2.934643E-1,-3.2468078E-1,3.806969E-1,-4.9911347E-1,-4.7434446E-1,5.0938857E-1,7.4288297E-1,2.1887732E-1,-1.9392075E-2,-9.4513275E-2,-5.6964E-1,2.4113473E-1,9.99348E-1,-3.9249942E-1,9.316467E-1,-1.2065752E-1,6.127195E-1,5.0310906E-2,8.797538E-2,-5.133304E-1,-3.8876268E-1,-9.7264594E-1,8.582489E-1,-3.7967572E-1,1.3962277E0,5.148211E-3,4.6869587E-2,-7.51814E-2,1.1932957E0,3.3710802E-1,-7.7265315E-2,3.761724E-2,8.931822E-1,-2.9891595E-1,-3.2229298E-1,3.2361832E-1,-8.557366E-2,3.7222154E-2,-4.6360958E-1,8.7218E-2,-1.0906739E0,1.9901935E-2,9.6125886E-2,7.086756E-3,8.306491E-3,-7.540773E-2,4.334026E-2,1.2401336E-1,4.232776E-1,1.4091598E0,-6.1217565E-2,7.0929193E-1,-4.01827E-2,1.1036118E0,5.6080397E-2,-7.237892E-2,-5.2902913E-1,5.8231644E-2,4.5894313E-1,-6.131989E-2,-6.230188E-1,2.8414306E-1,-7.410948E-1,-1.0501138E-1,-2.3595467E-2,7.972135E-2,1.189601E-1,5.725217E-2,1.22303E0,-3.4262087E-2,-7.36733E-3,1.2980897E0,3.5097998E-2,-7.696378E-1,-6.259973E-2,5.7108575E-1,-8.301716E-1,-1.3344353E-2,-1.6828565E-1,9.0532094E-2,-1.12541E0,-1.5045144E-1,4.5511026E-2,1.20384954E-1,1.5893588E-2,1.12367414E-1,-7.1906276E-2,2.8820017E-2,-5.3485245E-2,5.170782E-2,-7.2417945E-2,-1.2592785E-2,-6.0787335E-2,4.8445154E-2,4.829788E-2,-6.2969185E-2,-1.0361839E-1,-3.5060328E-2,4.1594267E-2,-6.431201E-2],"categories":[],"categories_nodes":[],"categories_segments":[],"categories_sizes":[],"default_left":[0,0,0,0,0,0,0,0,0,0,0,0,0,0,0,0,0,0,0,0,0,0,0,0,0,0,0,0,0,0,0,0,0,0,0,0,0,0,0,0,0,0,0,0,0,0,0,0,0,0,0,0,0,0,0,0,0,0,0,0,0,0,0,0,0,0,0,0,0,0,0,0,0,0,0,0,0,0,0,0,0,0,0,0,0,0,0,0,0,0,0,0,0,0,0,0,0,0,0,0,0],"id":5,"left_children":[1,3,5,7,9,11,13,15,17,19,-1,21,23,25,27,29,31,33,35,-1,37,39,41,43,45,47,-1,-1,-1,49,51,-1,-1,53,55,57,59,-1,-1,61,-1,63,-1,-1,-1,-1,-1,-1,-1,65,67,-1,69,-1,71,-1,-1,73,-1,75,-1,77,79,81,-1,-1,-1,-1,-1,83,-1,-1,85,-1,87,-1,89,91,93,95,-1,97,99,-1,-1,-1,-1,-1,-1,-1,-1,-1,-1,-1,-1,-1,-1,-1,-1,-1,-1],"loss_changes":[5.54312E1,2.1479092E1,3.4482117E1,1.6128075E1,1.1279975E1,1.6029472E1,1.9045841E1,1.4036095E1,1.2817848E1,1.2385832E1,0E0,1.46371155E1,1.1090666E1,1.0112062E1,1.0293333E1,1.05197525E1,9.689366E0,1.5075459E1,1.40169935E1,0E0,9.971924E0,1.7244415E1,9.516113E0,4.5351343E0,4.6228247E0,3.1127548E0,0E0,0E0,0E0,7.4420395E0,1.0387434E1,0E0,0E0,1.398494E1,1.07444315E1,1.3655392E1,1.26234665E1,0E0,0E0,1.6618845E1,0E0,5.2203903E0,0E0,0E0,0E0,0E0,0E0,0E0,0E0,6.007058E0,3.0570984E0,0E0,1.1228516E1,0E0,9.278561E0,0E0,0E0,1.2275401E1,0E0,1.0855276E1,0E0,1.4388031E1,1.0611213E1,6.4786263E0,0E0,0E0,0E0,0E0,0E0,2.0011063E0,0E0,0E0,7.0235786E0,0E0,9.182592E0,0E0,1.0588268E1,7.467205E0,1.6253296E1,1.0139547E1,0E0,2.3185139E0,6.805852E0,0E0,0E0,0E0,0E0,0E0,0E0,0E0,0E0,0E0,0E0,0E0,0E0,0E0,0E0,0E0,0E0,0E0,0E0],"parents":[2147483647,0,0,1,1,2,2,3,3,4,4,5,5,6,6,7,7,8,8,9,9,11,11,12,12,13,13,14,14,15,15,16,16,17,17,18,18,20,20,21,21,22,22,23,23,24,24,25,25,29,29,30,30,33,33,34,34,35,35,36,36,39,39,41,41,49,49,50,50,52,52,54,54,57,57,59,59,61,61,62,62,63,63,69,69,72,72,74,74,76,76,77,77,78,78,79,79,81,81,82,82],"right_children":[2,4,6,8,10,12,14,16,18,20,-1,22,24,26,28,30,32,34,36,-1,38,40,42,44,46,48,-1,-1,-1,50,52,-1,-1,54,56,58,60,-1,-1,62,-1,64,-1,-1,-1,-1,-1,-1,-1,66,68,-1,70,-1,72,-1,-1,74,-1,76,-1,78,80,82,-1,-1,-1,-1,-1,84,-1,-1,86,-1,88,-1,90,92,94,96,-1,98,100,-1,-1,-1,-1,-1,-1,-1,-1,-1,-1,-1,-1,-1,-1,-1,-1,-1,-1],"split_conditions":[8.195963E-2,1.4637216E-2,5.7323568E-2,-2.1334494E-2,2.3942019E-1,6.533866E-2,1.656753E-1,5.2200366E-2,-6.301426E-5,-6.69289E-2,-9.4513275E-2,1.9766846E-1,1.7498098E-1,5.607336E-1,-5.4482367E-5,9.471682E-2,-1.011202E-1,3.559265E-2,2.8234846E-3,8.797538E-2,5.697269E-3,5.8343913E-2,7.1935254E-1,8.042288E-1,-9.06259E-3,-1.5108748E-2,5.148211E-3,4.6869587E-2,-7.51814E-2,8.171132E-2,1.0034108E-1,-7.7265315E-2,3.761724E-2,1.8262553E-1,6.607592E-3,8.5711676E-1,2.5877488E-1,-8.557366E-2,3.7222154E-2,2.4485601E-2,8.7218E-2,1.2780887E-2,1.9901935E-2,9.6125886E-2,7.086756E-3,8.306491E-3,-7.540773E-2,4.334026E-2,1.2401336E-1,1.1353762E-1,5.9145357E-2,-6.1217565E-2,2.1428738E-3,-4.01827E-2,-7.938072E-2,5.6080397E-2,-7.237892E-2,-3.2854103E-4,5.8231644E-2,-1.0971196E-2,-6.131989E-2,4.2076963E-3,5.951236E-2,4.2492014E-1,-1.0501138E-1,-2.3595467E-2,7.972135E-2,1.189601E-1,5.725217E-2,-1.2049682E-2,-3.4262087E-2,-7.36733E-3,-5.3963415E-2,3.5097998E-2,4.4228588E-4,-6.259973E-2,-1.7432196E-2,4.7856057E-1,5.29031E-2,7.874298E-3,9.0532094E-2,2.1465378E-6,2.4075407E-1,4.5511026E-2,1.20384954E-1,1.5893588E-2,1.12367414E-1,-7.1906276E-2,2.8820017E-2,-5.3485245E-2,5.170782E-2,-7.2417945E-2,-1.2592785E-2,-6.0787335E-2,4.8445154E-2,4.829788E-2,-6.2969185E-2,-1.0361839E-1,-3.5060328E-2,4.1594267E-2,-6.431201E-2],"split_indices":[392,428,148,328,492,95,392,449,346,246,0,518,246,461,11,423,253,539,152,0,173,400,436,438,440,566,0,0,0,492,429,0,0,461,79,519,200,0,0,308,0,97,0,0,0,0,0,0,0,452,392,0,347,0,516,0,0,416,0,123,0,163,402,534,0,0,0,0,0,411,0,0,180,0,369,0,165,495,402,161,0,0,389,0,0,0,0,0,0,0,0,0,0,0,0,0,0,0,0,0,0],"split_type":[0,0,0,0,0,0,0,0,0,0,0,0,0,0,0,0,0,0,0,0,0,0,0,0,0,0,0,0,0,0,0,0,0,0,0,0,0,0,0,0,0,0,0,0,0,0,0,0,0,0,0,0,0,0,0,0,0,0,0,0,0,0,0,0,0,0,0,0,0,0,0,0,0,0,0,0,0,0,0,0,0,0,0,0,0,0,0,0,0,0,0,0,0,0,0,0,0,0,0,0,0],"sum_hessian":[5.80216E2,3.069188E2,2.732972E2,2.7695615E2,2.996264E1,2.3208385E2,4.121336E1,8.4418686E1,1.9253748E2,1.9007265E1,1.0955376E1,2.0498544E2,2.7098413E1,2.6635372E1,1.4577987E1,6.921082E1,1.5207858E1,5.691805E1,1.3561943E2,5.1646605E0,1.3842605E1,1.4284041E2,6.214502E1,1.339786E1,1.3700555E1,1.8322107E1,8.313264E0,5.454515E0,9.123472E0,4.7360832E1,2.1849995E1,5.9112506E0,9.296608E0,4.3542526E1,1.33755245E1,5.7309433E1,7.831E1,8.455802E0,5.386802E0,1.3693633E2,5.9040914E0,5.6844624E1,5.3003983E0,8.1830435E0,5.2148166E0,8.142232E0,5.5583224E0,5.158906E0,1.3163202E1,1.1018196E1,3.6342636E1,5.0396824E0,1.6810312E1,5.3906307E0,3.8151894E1,5.154348E0,8.221176E0,4.8670086E1,8.639348E0,7.054291E1,7.767089E0,1.1301096E2,2.3925362E1,2.8286974E1,2.855765E1,5.352312E0,5.6658845E0,2.73826E1,8.960033E0,1.1635467E1,5.1748466E0,5.382681E0,3.2769215E1,9.278424E0,3.939166E1,5.113534E0,6.5429375E1,8.408069E1,2.8930273E1,1.6603855E1,7.3215065E0,1.6588139E1,1.1698835E1,5.444011E0,6.191455E0,5.419007E0,2.7350206E1,3.3990166E1,5.4014945E0,5.0969872E0,6.0332386E1,6.94281E1,1.4652587E1,1.2991962E1,1.5938311E1,7.5315804E0,9.072275E0,1.11478615E1,5.4402766E0,5.9656663E0,5.7331696E0],"tree_param":{"num_deleted":"0","num_feature":"573","num_nodes":"101","size_leaf_vector":"1"}},{"base_weights":[2.2484697E-3,2.841236E-1,-2.953889E-1,4.0262595E-1,-2.7156156E-1,-5.1445544E-1,1.9261229E-1,8.009733E-1,1.7118941E-1,-6.791469E-1,4.854175E-1,-6.3923407E-1,2.7626103E-1,-5.214746E-1,5.111213E-1,9.6289444E-1,1.2910408E-1,7.7969694E-1,5.0680577E-3,-9.5468783E-1,4.020966E-3,1.0550759E0,-3.594828E-2,-8.046568E-1,-2.594933E-1,-3.1140676E-1,7.149164E-1,5.0945643E-2,-9.162519E-1,2.4635279E-1,1.2724507E0,-1.7569054E-2,1.0660996E0,-5.0009783E-2,6.748998E-1,8.769551E-2,1.3189013E0,-9.3495125E-1,1.460786E-1,-3.416575E-1,-1.00169525E-1,1.5245225E-2,1.2258319E-1,-9.6599245E-1,-2.1427123E-1,4.4637364E-1,-6.378847E-1,3.1275675E-2,-6.662146E-2,-3.7471275E-3,8.896681E-2,-1.5508355E-2,-1.0319453E-1,-5.9866898E-2,4.806271E-1,1.1998697E-1,3.71902E-2,5.2636576E-1,1.2222096E0,8.908853E-2,5.3094495E-3,-4.7371734E-2,5.6067005E-2,1.1895998E-1,3.835386E-2,-1.3066103E-2,-9.471543E-2,6.5258974E-1,-1.24304816E-1,-4.9430974E-2,2.4332288E-3,-1.0671493E0,2.295676E-3,-9.486792E-1,4.3211147E-1,1.1415848E0,-3.6956314E-2,-1.1799959E-1,-1.0764121E0,8.3646446E-1,-3.699052E-2,-1.32950535E-2,8.780576E-2,3.2267477E-2,1.3088499E0,1.0729613E0,-3.5428826E-2,7.7797785E-2,-2.6963353E-1,5.183756E-3,-1.1528405E0,-2.8728075E-2,-1.0139437E-1,8.5718326E-2,-4.599806E-2,2.6279958E-2,1.2986548E-1,-6.9613636E-2,6.453258E-2,-9.848627E-2,-2.836371E-2,1.0667844E-3,1.1395037E0,1.0581562E-1,5.374515E-2,1.0785116E-1,2.5797417E-2,3.417087E-2,-3.6742955E-2,-9.534917E-2,-4.2188138E-2,1.0719888E-1,1.5122475E-2],"categories":[],"categories_nodes":[],"categories_segments":[],"categories_sizes":[],"default_left":[0,0,0,0,0,0,0,0,0,0,0,0,0,0,0,0,0,0,0,0,0,0,0,0,0,0,0,0,0,0,0,0,0,0,0,0,0,0,0,0,0,0,0,0,0,0,0,0,0,0,0,0,0,0,0,0,0,0,0,0,0,0,0,0,0,0,0,0,0,0,0,0,0,0,0,0,0,0,0,0,0,0,0,0,0,0,0,0,0,0,0,0,0,0,0,0,0,0,0,0,0,0,0,0,0,0,0,0,0,0,0,0,0],"id":6,"left_children":[1,3,5,7,9,11,13,15,17,19,21,23,25,27,29,31,33,35,37,39,-1,41,-1,43,45,47,49,-1,51,53,55,-1,57,-1,59,61,63,65,67,69,-1,-1,-1,71,73,75,77,-1,-1,-1,-1,-1,-1,-1,79,-1,-1,81,83,-1,-1,-1,-1,-1,-1,-1,-1,85,87,-1,-1,89,-1,91,93,95,-1,97,99,101,-1,-1,-1,-1,103,105,-1,-1,107,-1,109,-1,-1,-1,-1,-1,-1,-1,-1,-1,-1,-1,111,-1,-1,-1,-1,-1,-1,-1,-1,-1,-1],"loss_changes":[4.84045E1,1.9621977E1,3.0100262E1,2.2416584E1,1.6583666E1,1.9313541E1,2.0207594E1,9.626415E0,1.5766377E1,7.049288E0,1.09590645E1,1.0333603E1,7.217392E0,1.3676535E1,1.2010119E1,9.153938E0,8.512786E0,1.2365547E1,1.6514631E1,5.437809E0,0E0,5.7239513E0,0E0,1.088253E1,1.4280571E1,5.5364094E0,5.769602E0,0E0,6.613289E0,1.1787754E1,3.1562595E0,0E0,4.9622345E0,0E0,3.48173E0,7.934001E0,3.230568E0,3.8343067E0,1.4913953E1,1.329643E0,0E0,0E0,0E0,9.222046E0,1.2881654E1,1.2886038E1,7.7441435E0,0E0,0E0,0E0,0E0,0E0,0E0,0E0,1.3819082E1,0E0,0E0,7.7712045E0,2.92585E0,0E0,0E0,0E0,0E0,0E0,0E0,0E0,0E0,1.8408306E1,1.2341959E1,0E0,0E0,8.1399E0,0E0,2.3587742E0,1.1595054E1,4.5966034E0,0E0,1.4211508E1,2.5787125E0,7.1364365E0,0E0,0E0,0E0,0E0,1.728775E0,6.920231E0,0E0,0E0,1.0495372E1,0E0,4.6727905E0,0E0,0E0,0E0,0E0,0E0,0E0,0E0,0E0,0E0,0E0,0E0,5.409624E0,0E0,0E0,0E0,0E0,0E0,0E0,0E0,0E0,0E0,0E0],"parents":[2147483647,0,0,1,1,2,2,3,3,4,4,5,5,6,6,7,7,8,8,9,9,10,10,11,11,12,12,13,13,14,14,15,15,16,16,17,17,18,18,19,19,21,21,23,23,24,24,25,25,26,26,28,28,29,29,30,30,32,32,34,34,35,35,36,36,37,37,38,38,39,39,43,43,44,44,45,45,46,46,54,54,57,57,58,58,67,67,68,68,71,71,73,73,74,74,75,75,77,77,78,78,79,79,84,84,85,85,88,88,90,90,102,102],"right_children":[2,4,6,8,10,12,14,16,18,20,22,24,26,28,30,32,34,36,38,40,-1,42,-1,44,46,48,50,-1,52,54,56,-1,58,-1,60,62,64,66,68,70,-1,-1,-1,72,74,76,78,-1,-1,-1,-1,-1,-1,-1,80,-1,-1,82,84,-1,-1,-1,-1,-1,-1,-1,-1,86,88,-1,-1,90,-1,92,94,96,-1,98,100,102,-1,-1,-1,-1,104,106,-1,-1,108,-1,110,-1,-1,-1,-1,-1,-1,-1,-1,-1,-1,-1,112,-1,-1,-1,-1,-1,-1,-1,-1,-1,-1],"split_conditions":[1.0582942E-1,4.7576404E-3,1.3734236E-2,-3.1502083E-2,1.3088012E-2,2.510701E0,4.7876623E-1,9.471682E-2,-3.1925205E-3,2.436449E-1,5.97753E-3,1.5790863E-1,1.4237315E-2,9.20211E-3,2.2270964E-2,-5.0065644E-2,-6.4706756E-4,-2.3024324E-2,-4.817953E-3,3.442593E-1,4.020966E-3,4.592934E-1,-3.594828E-2,3.505423E-3,5.7057057E-2,-1.9594226E-3,4.279359E-1,5.0945643E-2,3.48217E-1,-7.1571283E-3,7.341867E-4,-1.7569054E-2,8.671407E-2,-5.0009783E-2,8.468306E-6,8.973204E-3,2.1854617E-1,4.5029704E-2,2.7999386E-1,-4.3808867E-4,-1.00169525E-1,1.5245225E-2,1.2258319E-1,6.069004E-1,4.2259786E-3,4.245768E-3,1.4628657E-3,3.1275675E-2,-6.662146E-2,-3.7471275E-3,8.896681E-2,-1.5508355E-2,-1.0319453E-1,-5.9866898E-2,1.0953584E-3,1.1998697E-1,3.71902E-2,1.2029451E-4,-1.828644E-1,8.908853E-2,5.3094495E-3,-4.7371734E-2,5.6067005E-2,1.1895998E-1,3.835386E-2,-1.3066103E-2,-9.471543E-2,2.2083022E-2,-1.1776366E-3,-4.9430974E-2,2.4332288E-3,1.4005922E-2,2.295676E-3,3.5470116E-4,3.0979991E-3,-7.789887E-3,-3.6956314E-2,1.215262E-1,1.5589923E-3,4.013602E-4,-3.699052E-2,-1.32950535E-2,8.780576E-2,3.2267477E-2,6.562963E-2,9.707313E-4,-3.5428826E-2,7.7797785E-2,3.1115027E-2,5.183756E-3,8.230107E-2,-2.8728075E-2,-1.0139437E-1,8.5718326E-2,-4.599806E-2,2.6279958E-2,1.2986548E-1,-6.9613636E-2,6.453258E-2,-9.848627E-2,-2.836371E-2,1.0667844E-3,1.5643997E-1,1.0581562E-1,5.374515E-2,1.0785116E-1,2.5797417E-2,3.417087E-2,-3.6742955E-2,-9.534917E-2,-4.2188138E-2,1.0719888E-1,1.5122475E-2],"split_indices":[518,553,237,200,500,481,457,423,91,496,98,538,560,437,382,496,422,504,20,462,0,456,0,366,515,97,456,0,461,10,111,0,492,0,126,512,497,518,415,102,0,0,0,498,447,176,79,0,0,0,0,0,0,0,28,0,0,427,201,0,0,0,0,0,0,0,0,99,174,0,0,561,0,254,412,445,0,497,123,523,0,0,0,0,120,162,0,0,392,0,248,0,0,0,0,0,0,0,0,0,0,0,229,0,0,0,0,0,0,0,0,0,0],"split_type":[0,0,0,0,0,0,0,0,0,0,0,0,0,0,0,0,0,0,0,0,0,0,0,0,0,0,0,0,0,0,0,0,0,0,0,0,0,0,0,0,0,0,0,0,0,0,0,0,0,0,0,0,0,0,0,0,0,0,0,0,0,0,0,0,0,0,0,0,0,0,0,0,0,0,0,0,0,0,0,0,0,0,0,0,0,0,0,0,0,0,0,0,0,0,0,0,0,0,0,0,0,0,0,0,0,0,0,0,0,0,0,0,0],"sum_hessian":[5.749541E2,2.953195E2,2.796346E2,2.4363803E2,5.1681454E1,1.9295967E2,8.667493E1,8.862914E1,1.550089E2,3.366032E1,1.8021132E1,1.6682544E2,2.6134232E1,2.6538723E1,6.01362E1,7.106843E1,1.7560715E1,3.2450005E1,1.2255889E2,2.4241776E1,9.418545E0,1.1271699E1,6.749433E0,1.15425026E2,5.140042E1,1.12938795E1,1.4840352E1,6.3881006E0,2.0150621E1,4.5601048E1,1.4535152E1,5.5397115E0,6.552872E1,7.0534277E0,1.0507286E1,1.4720596E1,1.7729406E1,1.5252266E1,1.07306625E2,1.00171385E1,1.4224638E1,5.1098523E0,6.161846E0,9.015266E1,2.527237E1,1.7875347E1,3.3525074E1,5.1138444E0,6.1800356E0,5.9988704E0,8.841482E0,8.492666E0,1.1657955E1,7.912721E0,3.7688328E1,9.479069E0,5.0560837E0,1.5681909E1,4.9846806E1,5.159809E0,5.3474774E0,7.063486E0,7.65711E0,1.25966E1,5.132807E0,5.0554705E0,1.0196795E1,3.685407E1,7.045255E1,5.006977E0,5.0101614E0,8.178095E1,8.371699E0,1.1611699E1,1.3660669E1,1.014768E1,7.727667E0,1.5920277E1,1.7604797E1,2.770575E1,9.982576E0,7.842802E0,7.8391066E0,5.5036674E0,4.434314E1,2.6862524E1,9.991547E0,7.1516843E0,6.330087E1,5.7485533E0,7.60324E1,5.644282E0,5.967417E0,8.076234E0,5.584436E0,5.015442E0,5.1322384E0,8.737029E0,7.1832476E0,1.248949E1,5.115308E0,7.743135E0,1.9962616E1,3.6647705E1,7.695435E0,1.7251175E1,9.611347E0,1.449799E1,4.880288E1,6.236246E1,1.366994E1,1.484982E1,5.1127954E0],"tree_param":{"num_deleted":"0","num_feature":"573","num_nodes":"113","size_leaf_vector":"1"}},{"base_weights":[2.6502172E-3,1.0832859E-1,-7.3019004E-1,7.647989E-1,2.0686487E-2,3.091039E-2,-8.258423E-1,9.5007306E-1,-1.8632382E-2,2.1385711E-1,-2.2304837E-1,-9.7123003E-1,1.4261007E-2,-9.855154E-3,1.2156194E0,3.3765754E-1,-3.4265774E-1,-3.9145222E-1,3.7304428E-1,-1.1500214E0,2.6130087E-3,1.4394275E0,2.6214136E-2,7.815466E-1,7.2023615E-2,-6.9683665E-1,7.7925754E-1,3.6645323E-1,-5.0888044E-1,7.4748576E-1,-2.9787838E-1,-1.2940521E0,-2.3132596E-2,4.1105893E-2,1.20251544E-1,-1.5625168E-2,9.2690164E-1,1.614053E-1,-7.518107E-2,8.04015E-2,-1.018329E0,9.869942E-2,8.469145E-3,-2.8142995E-1,8.896747E-2,-5.885946E-1,6.311363E-2,9.908282E-1,-4.534461E-3,-8.310574E-1,5.542795E-2,-1.03911065E-1,-4.2135548E-2,3.6935726E-1,1.1886086E0,3.8347602E-1,-2.939108E-1,5.1812682E-2,-4.054042E-2,-1.1658287E-2,-1.2567499E0,-7.749948E-2,3.2894418E-2,-7.4536914E-1,-1.4638464E-1,2.8452953E-2,1.3318684E0,-1.01531394E-1,-1.358214E-2,9.085612E-2,4.2245234E-3,1.0368886E-1,3.362251E-2,7.348743E-2,6.1504063E-3,-4.440493E-2,4.9046595E-2,-5.9494674E-2,-1.11519985E-1,-3.339006E-2,-7.97422E-2,-5.7829086E-2,3.395601E-2,1.2150918E-1,5.2301887E-2],"categories":[],"categories_nodes":[],"categories_segments":[],"categories_sizes":[],"default_left":[0,0,0,0,0,0,0,0,0,0,0,0,0,0,0,0,0,0,0,0,0,0,0,0,0,0,0,0,0,0,0,0,0,0,0,0,0,0,0,0,0,0,0,0,0,0,0,0,0,0,0,0,0,0,0,0,0,0,0,0,0,0,0,0,0,0,0,0,0,0,0,0,0,0,0,0,0,0,0,0,0,0,0,0,0],"id":7,"left_children":[1,3,5,7,9,-1,11,13,-1,15,17,19,-1,-1,21,23,25,27,29,31,-1,33,-1,35,37,39,41,43,45,47,49,51,-1,-1,-1,-1,53,55,-1,57,59,-1,-1,61,-1,63,-1,65,-1,67,-1,-1,-1,69,71,73,75,-1,-1,-1,77,-1,-1,79,81,-1,83,-1,-1,-1,-1,-1,-1,-1,-1,-1,-1,-1,-1,-1,-1,-1,-1,-1,-1],"loss_changes":[4.4236008E1,2.8704283E1,8.206169E0,1.1267925E1,2.083058E1,0E0,1.0045692E1,1.4486908E1,0E0,1.7116743E1,1.9786606E1,1.0574505E1,0E0,0E0,7.279854E0,2.3804422E1,1.8583374E1,1.3807238E1,1.1178625E1,5.6321335E0,0E0,3.7364197E0,0E0,1.107925E1,1.2425608E1,8.836287E0,3.9162765E0,1.154713E1,1.480471E1,5.6189203E0,9.645813E0,2.0450287E0,0E0,0E0,0E0,0E0,9.213886E0,1.212033E1,0E0,4.6104407E0,4.918436E0,0E0,0E0,7.275087E0,0E0,8.633713E0,0E0,4.038082E0,0E0,3.5799932E0,0E0,0E0,0E0,5.884638E0,5.7785454E0,1.434858E1,1.1549789E1,0E0,0E0,0E0,8.832073E-1,0E0,0E0,8.386372E0,1.3168037E1,0E0,1.3554688E0,0E0,0E0,0E0,0E0,0E0,0E0,0E0,0E0,0E0,0E0,0E0,0E0,0E0,0E0,0E0,0E0,0E0,0E0],"parents":[2147483647,0,0,1,1,2,2,3,3,4,4,6,6,7,7,9,9,10,10,11,11,14,14,15,15,16,16,17,17,18,18,19,19,21,21,23,23,24,24,25,25,26,26,27,27,28,28,29,29,30,30,31,31,36,36,37,37,39,39,40,40,43,43,45,45,47,47,49,49,53,53,54,54,55,55,56,56,60,60,63,63,64,64,66,66],"right_children":[2,4,6,8,10,-1,12,14,-1,16,18,20,-1,-1,22,24,26,28,30,32,-1,34,-1,36,38,40,42,44,46,48,50,52,-1,-1,-1,-1,54,56,-1,58,60,-1,-1,62,-1,64,-1,66,-1,68,-1,-1,-1,70,72,74,76,-1,-1,-1,78,-1,-1,80,82,-1,84,-1,-1,-1,-1,-1,-1,-1,-1,-1,-1,-1,-1,-1,-1,-1,-1,-1,-1],"split_conditions":[1.6201283E-1,-2.7236719E-2,-1.2989922E-1,1.2146165E-2,7.6629974E-2,3.091039E-2,9.6828975E-2,1.1831638E0,-1.8632382E-2,3.8699366E-3,3.230986E-3,7.1935254E-1,1.4261007E-2,-9.855154E-3,5.3656194E-2,9.76278E-2,2.3365466E-2,-1.5973931E-2,1.5167205E-1,2.9636985E-3,2.6130087E-3,4.077004E-2,2.6214136E-2,-1.5843855E-3,8.130943E-3,-6.0743163E-4,8.6868554E-2,2.2248996E-2,5.5085536E-2,1.3320024E-1,1.276786E-4,2.0979995E-1,-2.3132596E-2,4.1105893E-2,1.20251544E-1,-1.5625168E-2,1.1014949E-1,1.3939668E-2,-7.518107E-2,-1.3819723E-2,6.191285E-2,9.869942E-2,8.469145E-3,3.2129872E-3,8.896747E-2,9.495701E-3,6.311363E-2,3.4401022E-2,-4.534461E-3,7.7607125E-1,5.542795E-2,-1.03911065E-1,-4.2135548E-2,-8.490156E-3,8.583921E-4,2.3330243E0,4.244032E-3,5.1812682E-2,-4.054042E-2,-1.1658287E-2,-1.372289E-1,-7.749948E-2,3.2894418E-2,4.123325E-5,1.2266244E0,2.8452953E-2,-6.3208705E-3,-1.01531394E-1,-1.358214E-2,9.085612E-2,4.2245234E-3,1.0368886E-1,3.362251E-2,7.348743E-2,6.1504063E-3,-4.440493E-2,4.9046595E-2,-5.9494674E-2,-1.11519985E-1,-3.339006E-2,-7.97422E-2,-5.7829086E-2,3.395601E-2,1.2150918E-1,5.2301887E-2],"split_indices":[392,210,499,407,392,0,152,507,0,553,241,436,0,0,560,455,545,69,399,410,0,497,0,64,350,34,532,500,400,475,23,492,0,0,0,0,492,434,0,71,481,0,0,210,0,67,0,216,0,519,0,0,0,245,294,478,75,0,0,0,112,0,0,485,564,0,440,0,0,0,0,0,0,0,0,0,0,0,0,0,0,0,0,0,0],"split_type":[0,0,0,0,0,0,0,0,0,0,0,0,0,0,0,0,0,0,0,0,0,0,0,0,0,0,0,0,0,0,0,0,0,0,0,0,0,0,0,0,0,0,0,0,0,0,0,0,0,0,0,0,0,0,0,0,0,0,0,0,0,0,0,0,0,0,0,0,0,0,0,0,0,0,0,0,0,0,0,0,0,0,0,0,0],"sum_hessian":[5.6916846E2,4.9818103E2,7.0987434E1,5.7766106E1,4.4041492E2,5.2291813E0,6.5758255E1,4.888887E1,8.877237E0,2.4576105E2,1.9465388E2,5.7564804E1,8.193449E0,9.73734E0,3.915153E1,2.0136035E2,4.440069E1,1.5204306E2,4.2610817E1,4.875699E1,8.8078165E0,3.0585875E1,8.565656E0,7.4658936E1,1.26701416E2,3.4035015E1,1.0365672E1,2.0112473E1,1.3193059E2,2.7274708E1,1.5336111E1,4.117294E1,7.584048E0,5.4259167E0,2.5159958E1,9.503807E0,6.515513E1,1.17755226E2,8.946193E0,1.0178188E1,2.3856827E1,5.201159E0,5.164513E0,1.1600857E1,8.511616E0,1.2510948E2,6.82111E0,2.0787447E1,6.487261E0,1.0259333E1,5.076778E0,3.5809624E1,5.3633156E0,2.1583876E1,4.3571255E1,7.9257065E1,3.849816E1,5.0757527E0,5.1024356E0,5.5223794E0,1.8334448E1,5.4619665E0,6.1388903E0,9.185797E1,3.3251507E1,8.199268E0,1.2588179E1,5.0862193E0,5.173114E0,5.071494E0,1.651238E1,3.384003E1,9.731223E0,2.5857224E1,5.3399837E1,2.9571648E1,8.926515E0,7.5593915E0,1.0775056E1,4.847843E1,4.337954E1,1.6138323E1,1.7113184E1,7.5877604E0,5.0004177E0],"tree_param":{"num_deleted":"0","num_feature":"573","num_nodes":"85","size_leaf_vector":"1"}},{"base_weights":[2.8736333E-3,1.01794764E-1,-6.904431E-1,7.1719E-1,1.9787317E-2,-7.8475493E-1,3.192224E-2,8.923886E-1,-1.739452E-2,1.8710431E-1,-2.2616237E-1,2.4100902E-2,-8.814325E-1,-9.193312E-3,1.1445978E0,2.4804924E-1,-7.3932344E-1,-3.7822634E-1,3.729471E-1,-1.0196828E0,-6.0819355E-3,7.842433E-3,1.3144996E0,5.733757E-1,7.033039E-2,-8.9493096E-2,1.1330679E-2,-5.121769E-1,3.8090697E-1,-1.4386597E-1,8.832751E-1,-1.1548501E0,2.9172872E-3,1.4716476E0,2.5248244E-2,-3.7220027E-2,6.6189224E-1,-4.9897048E-1,2.0338018E-1,-5.843928E-1,6.181883E-2,7.0244956E-1,-4.1846517E-2,-5.90118E-1,5.631969E-2,1.04182035E-1,1.3785292E-2,-1.2542962E0,-3.67108E-2,6.282643E-2,1.181381E-1,7.606599E-1,-1.7253626E-2,3.158954E-2,-7.672737E-1,1.0992433E-1,1.1883473E-1,-4.1096497E-1,-1.0936279E0,-1.0081607E-2,1.1087275E-1,7.2748596E-3,-8.157321E-2,-4.5624554E-2,-1.3454922E0,6.448632E-2,-1.15325395E-2,-8.801999E-2,6.571394E-3,-2.5093413E-3,4.5756474E-2,-4.9228083E-2,1.0509663E-2,-2.2389803E-2,-9.416776E-2,-6.337146E-2,-1.0639023E-1],"categories":[],"categories_nodes":[],"categories_segments":[],"categories_sizes":[],"default_left":[0,0,0,0,0,0,0,0,0,0,0,0,0,0,0,0,0,0,0,0,0,0,0,0,0,0,0,0,0,0,0,0,0,0,0,0,0,0,0,0,0,0,0,0,0,0,0,0,0,0,0,0,0,0,0,0,0,0,0,0,0,0,0,0,0,0,0,0,0,0,0,0,0,0,0,0,0],"id":8,"left_children":[1,3,5,7,9,11,-1,13,-1,15,17,-1,19,-1,21,23,25,27,29,31,-1,-1,33,35,37,-1,-1,39,41,43,45,47,-1,49,-1,-1,51,53,55,57,-1,59,-1,61,-1,-1,-1,63,-1,-1,-1,65,-1,-1,67,-1,69,71,73,-1,-1,-1,-1,-1,75,-1,-1,-1,-1,-1,-1,-1,-1,-1,-1,-1,-1],"loss_changes":[3.8828255E1,2.4988598E1,7.774868E0,9.889509E0,1.8074913E1,7.291168E0,0E0,1.2776081E1,0E0,1.4938666E1,1.6345013E1,0E0,6.615242E0,0E0,6.865967E0,1.4179875E1,6.801339E0,1.4670612E1,9.756238E0,7.418289E0,0E0,0E0,4.726513E0,8.542252E0,1.2235989E1,0E0,0E0,1.2201054E1,7.010664E0,8.029686E0,6.293645E0,2.4118805E0,0E0,5.825386E-1,0E0,0E0,7.2710533E0,7.8870044E0,1.3759596E1,9.776596E0,0E0,1.1090031E1,0E0,4.630685E0,0E0,0E0,0E0,1.4874077E0,0E0,0E0,0E0,6.728821E0,0E0,0E0,8.4657E0,0E0,9.256664E0,1.1990149E1,3.335247E0,0E0,0E0,0E0,0E0,0E0,2.5306702E-2,0E0,0E0,0E0,0E0,0E0,0E0,0E0,0E0,0E0,0E0,0E0,0E0],"parents":[2147483647,0,0,1,1,2,2,3,3,4,4,5,5,7,7,9,9,10,10,12,12,14,14,15,15,16,16,17,17,18,18,19,19,22,22,23,23,24,24,27,27,28,28,29,29,30,30,31,31,33,33,36,36,37,37,38,38,39,39,41,41,43,43,47,47,51,51,54,54,56,56,57,57,58,58,64,64],"right_children":[2,4,6,8,10,12,-1,14,-1,16,18,-1,20,-1,22,24,26,28,30,32,-1,-1,34,36,38,-1,-1,40,42,44,46,48,-1,50,-1,-1,52,54,56,58,-1,60,-1,62,-1,-1,-1,64,-1,-1,-1,66,-1,-1,68,-1,70,72,74,-1,-1,-1,-1,-1,76,-1,-1,-1,-1,-1,-1,-1,-1,-1,-1,-1,-1],"split_conditions":[1.6201283E-1,-2.7236719E-2,3.5177153E-2,1.2146165E-2,8.1228666E-2,-1.2989922E-1,3.192224E-2,1.1831638E0,-1.739452E-2,4.1883726E-2,4.352321E-3,2.4100902E-2,7.1935254E-1,-9.193312E-3,6.5045655E-2,-3.1502083E-2,6.176538E-2,1.5760323E-1,7.287535E-2,9.6828975E-2,-6.0819355E-3,7.842433E-3,3.1698453E-1,-3.4825623E-3,-1.0757688E-2,-8.9493096E-2,1.1330679E-2,5.8343913E-2,2.7805993E-2,2.9897958E-3,1.9480321E-3,2.9636985E-3,2.9172872E-3,-8.039189E-3,2.5248244E-2,-3.7220027E-2,8.254695E-3,-5.8321416E-4,-3.469403E-3,1.9801999E-2,6.181883E-2,-3.6090627E-2,-4.1846517E-2,-5.7887734E-4,5.631969E-2,1.04182035E-1,1.3785292E-2,-1.892624E-2,-3.67108E-2,6.282643E-2,1.181381E-1,4.7334325E-2,-1.7253626E-2,3.158954E-2,3.5047932E0,1.0992433E-1,3.9689216E-1,8.278452E-3,2.1818977E-2,-1.0081607E-2,1.1087275E-1,7.2748596E-3,-8.157321E-2,-4.5624554E-2,-3.9796242E-3,6.448632E-2,-1.15325395E-2,-8.801999E-2,6.571394E-3,-2.5093413E-3,4.5756474E-2,-4.9228083E-2,1.0509663E-2,-2.2389803E-2,-9.416776E-2,-6.337146E-2,-1.0639023E-1],"split_indices":[392,210,173,407,392,499,0,507,0,115,241,0,436,0,436,200,293,405,528,152,0,0,435,512,152,0,0,400,342,81,512,410,0,289,0,0,427,283,111,342,0,493,0,485,0,0,0,117,0,0,0,97,0,0,481,0,498,88,419,0,0,0,0,0,80,0,0,0,0,0,0,0,0,0,0,0,0],"split_type":[0,0,0,0,0,0,0,0,0,0,0,0,0,0,0,0,0,0,0,0,0,0,0,0,0,0,0,0,0,0,0,0,0,0,0,0,0,0,0,0,0,0,0,0,0,0,0,0,0,0,0,0,0,0,0,0,0,0,0,0,0,0,0,0,0,0,0,0,0,0,0,0,0,0,0,0,0],"sum_hessian":[5.6411945E2,4.9442853E2,6.9690956E1,5.7228973E1,4.3719955E2,6.453445E1,5.1565137E0,4.8361618E1,8.867354E0,2.603354E2,1.7686417E2,5.0003924E0,5.9534054E1,9.727841E0,3.8633778E1,2.449534E2,1.5381976E1,1.4135468E2,3.5509487E1,5.053125E1,9.002804E0,5.651893E0,3.2981884E1,8.5752075E1,1.5920132E2,9.962872E0,5.4191046E0,1.2042991E2,2.0924774E1,1.7999424E1,1.7510063E1,4.4728977E1,5.80227E0,2.7980293E1,5.0015903E0,6.2018437E0,7.955023E1,2.9637306E1,1.2956401E2,1.1478979E2,5.64012E0,1.5774204E1,5.1505704E0,1.223706E1,5.7623644E0,9.589529E0,7.920534E0,3.8143047E1,6.5859327E0,5.2040486E0,2.2776245E1,7.175206E1,7.798171E0,6.5621443E0,2.3075163E1,7.1077914E0,1.2245622E2,8.697585E1,2.7813932E1,7.986427E0,7.787777E0,5.4774127E0,6.759647E0,5.6676855E0,3.247536E1,6.478653E1,6.9655337E0,1.5388351E1,7.6868114E0,9.418873E1,2.8267498E1,6.0045673E1,2.6930182E1,5.187581E0,2.262635E1,5.7360945E0,2.6739267E1],"tree_param":{"num_deleted":"0","num_feature":"573","num_nodes":"77","size_leaf_vector":"1"}},{"base_weights":[2.684154E-3,9.539765E-2,-6.545602E-1,6.7506236E-1,1.8523356E-2,-4.825945E-1,-9.76071E-2,2.1552324E-1,1.0307484E0,1.8623708E-1,-1.9443753E-1,-6.460484E-1,6.069851E-2,-5.6091588E-2,5.919691E-1,-4.2337035E-3,1.2912587E0,2.9691285E-1,-3.1558123E-1,-3.4410793E-1,3.3141574E-1,-9.756935E-1,-5.3162787E-2,-2.713547E-2,1.05468E0,5.232095E-2,1.0527086E-1,7.104223E-1,5.1771224E-2,-6.4652604E-1,7.1500283E-1,3.6335137E-1,-4.5456412E-1,6.686321E-1,-2.7570996E-1,6.843031E-3,-1.1807438E0,4.530143E-1,-5.9306365E-2,1.0709338E-1,2.7644733E-2,9.112768E-1,2.6707543E-2,-7.674838E-1,1.5501817E-1,-9.5942235E-1,7.8229485E-3,9.2471726E-2,5.852367E-3,-2.3541826E-1,8.330807E-2,-5.2628714E-1,5.5286076E-2,8.918781E-1,-4.7399923E-3,-7.815645E-1,5.1625386E-2,-5.5135693E-2,-1.03139125E-1,-2.3685528E-2,7.899852E-2,1.1604732E0,3.2866567E-1,5.3792965E-1,-7.390829E-2,-9.975765E-2,4.545123E-3,2.4322002E-1,-6.60519E-2,-8.368455E-3,-1.2651757E0,-7.204145E-2,3.2509867E-2,-4.39471E-1,-9.766065E-2,2.4162777E-2,1.2184563E0,-2.0499885E-2,-8.6888105E-2,2.9812241E-2,9.572504E-2,-5.804682E-3,8.868901E-2,-1.78152E-2,8.515217E-2,-6.541454E-3,4.2381793E-2,-5.2584134E-2,-1.08734004E-1,-5.5202216E-2,-1.024755E-2,1.0841738E-1,5.423126E-2],"categories":[],"categories_nodes":[],"categories_segments":[],"categories_sizes":[],"default_left":[0,0,0,0,0,0,0,0,0,0,0,0,0,0,0,0,0,0,0,0,0,0,0,0,0,0,0,0,0,0,0,0,0,0,0,0,0,0,0,0,0,0,0,0,0,0,0,0,0,0,0,0,0,0,0,0,0,0,0,0,0,0,0,0,0,0,0,0,0,0,0,0,0,0,0,0,0,0,0,0,0,0,0,0,0,0,0,0,0,0,0,0,0],"id":9,"left_children":[1,3,5,7,9,11,-1,13,15,17,19,21,-1,-1,23,-1,25,27,29,31,33,35,37,-1,39,-1,-1,41,43,45,47,49,51,53,55,-1,57,59,-1,-1,-1,61,63,65,67,69,-1,-1,-1,71,-1,73,-1,75,-1,77,-1,-1,-1,-1,-1,79,81,83,-1,-1,-1,85,-1,-1,87,-1,-1,89,-1,-1,91,-1,-1,-1,-1,-1,-1,-1,-1,-1,-1,-1,-1,-1,-1,-1,-1],"loss_changes":[3.419559E1,2.1901714E1,7.0892677E0,9.18515E0,1.5580827E1,1.2431757E1,0E0,1.0008358E1,9.186718E0,1.3644555E1,1.5243851E1,9.84096E0,0E0,0E0,8.997604E0,0E0,7.549896E-1,2.0278963E1,1.5664468E1,1.1897108E1,9.008619E0,7.2120266E0,7.5059133E0,0E0,2.905281E0,0E0,0E0,1.0208363E1,1.0853024E1,8.149688E0,3.6348839E0,9.583956E0,1.1525362E1,4.6313314E0,8.389041E0,0E0,1.3553009E0,5.8659067E0,0E0,0E0,0E0,7.9759674E0,9.817806E0,6.7759705E0,1.0585406E1,6.153719E0,0E0,0E0,0E0,6.4261804E0,0E0,7.7455864E0,0E0,3.6118908E0,0E0,1.795856E0,0E0,0E0,0E0,0E0,0E0,3.021862E0,6.5544453E0,6.09453E0,0E0,0E0,0E0,1.1259993E1,0E0,0E0,8.318577E-1,0E0,0E0,1.0009338E1,0E0,0E0,4.5341873E-1,0E0,0E0,0E0,0E0,0E0,0E0,0E0,0E0,0E0,0E0,0E0,0E0,0E0,0E0,0E0,0E0],"parents":[2147483647,0,0,1,1,2,2,3,3,4,4,5,5,7,7,8,8,9,9,10,10,11,11,14,14,16,16,17,17,18,18,19,19,20,20,21,21,22,22,24,24,27,27,28,28,29,29,30,30,31,31,32,32,33,33,34,34,36,36,37,37,41,41,42,42,43,43,44,44,45,45,49,49,51,51,53,53,55,55,61,61,62,62,63,63,67,67,70,70,73,73,76,76],"right_children":[2,4,6,8,10,12,-1,14,16,18,20,22,-1,-1,24,-1,26,28,30,32,34,36,38,-1,40,-1,-1,42,44,46,48,50,52,54,56,-1,58,60,-1,-1,-1,62,64,66,68,70,-1,-1,-1,72,-1,74,-1,76,-1,78,-1,-1,-1,-1,-1,80,82,84,-1,-1,-1,86,-1,-1,88,-1,-1,90,-1,-1,92,-1,-1,-1,-1,-1,-1,-1,-1,-1,-1,-1,-1,-1,-1,-1,-1],"split_conditions":[1.6201283E-1,-2.7236719E-2,1.2067217E0,8.686936E-3,7.6629974E-2,1.0287849E0,-9.76071E-2,-4.9283937E-2,-1.19190685E-1,3.8699366E-3,3.230986E-3,6.2795924E-3,6.069851E-2,-5.6091588E-2,-1.4535595E-1,-4.2337035E-3,8.007277E-3,9.76278E-2,2.3365466E-2,-1.5973931E-2,1.5167205E-1,-1.5174443E-1,5.5922195E-2,-2.713547E-2,1.15541786E-1,5.232095E-2,1.0527086E-1,1.3794773E-4,-1.646277E-2,2.6431357E-2,-6.5552816E-2,2.2248996E-2,5.5085536E-2,1.3320024E-1,1.276786E-4,6.843031E-3,3.4762845E-5,2.6486823E-3,-5.9306365E-2,1.0709338E-1,2.7644733E-2,1.1135141E0,3.842133E-3,2.4714649E-1,8.130943E-3,2.674455E-1,7.8229485E-3,9.2471726E-2,5.852367E-3,3.2129872E-3,8.330807E-2,1.4500192E-2,5.5286076E-2,-2.1868495E-3,-4.7399923E-3,3.4939697E-1,5.1625386E-2,-5.5135693E-2,-1.03139125E-1,-2.3685528E-2,7.899852E-2,-3.5074044E-2,8.223628E-5,-9.903275E-3,-7.390829E-2,-9.975765E-2,4.545123E-3,-8.920681E-5,-6.60519E-2,-8.368455E-3,-8.039678E-2,-7.204145E-2,3.2509867E-2,-1.2992731E-5,-9.766065E-2,2.4162777E-2,4.445494E-4,-2.0499885E-2,-8.6888105E-2,2.9812241E-2,9.572504E-2,-5.804682E-3,8.868901E-2,-1.78152E-2,8.515217E-2,-6.541454E-3,4.2381793E-2,-5.2584134E-2,-1.08734004E-1,-5.5202216E-2,-1.024755E-2,1.0841738E-1,5.423126E-2],"split_indices":[392,210,444,195,392,444,0,176,162,553,241,237,0,0,478,0,67,455,545,69,399,214,538,0,464,0,0,367,75,447,454,500,400,475,23,0,400,490,0,0,0,519,33,467,350,509,0,0,0,210,0,485,0,84,0,503,0,0,0,0,0,308,144,69,0,0,0,241,0,0,392,0,0,77,0,0,50,0,0,0,0,0,0,0,0,0,0,0,0,0,0,0,0],"split_type":[0,0,0,0,0,0,0,0,0,0,0,0,0,0,0,0,0,0,0,0,0,0,0,0,0,0,0,0,0,0,0,0,0,0,0,0,0,0,0,0,0,0,0,0,0,0,0,0,0,0,0,0,0,0,0,0,0,0,0,0,0,0,0,0,0,0,0,0,0,0,0,0,0,0,0,0,0,0,0,0,0,0,0,0,0,0,0,0,0,0,0,0,0],"sum_hessian":[5.591528E2,4.9077673E2,6.837606E1,5.655403E1,4.342227E2,5.5395546E1,1.2980513E1,2.5375427E1,3.1178604E1,2.429875E2,1.9123518E2,4.9617767E1,5.77778E0,6.852248E0,1.852318E1,6.1782007E0,2.5000402E1,1.9941496E2,4.3572548E1,1.4913377E2,4.2101414E1,3.1473047E1,1.814472E1,6.122038E0,1.2401142E1,5.1258287E0,1.9874575E1,7.351332E1,1.2590164E2,3.326351E1,1.0309035E1,1.983072E1,1.2930305E2,2.7002234E1,1.5099182E1,5.163089E0,2.6309958E1,1.098914E1,7.155581E0,7.331521E0,5.0696206E0,5.656378E1,1.6949541E1,1.3370945E1,1.1253069E2,2.3282936E1,9.980576E0,5.169665E0,5.1393704E0,1.1390599E1,8.440122E0,1.22489426E2,6.813628E0,2.0522985E1,6.479248E0,1.0027075E1,5.0721073E0,9.445281E0,1.6864677E1,5.026047E0,5.9630923E0,3.892346E1,1.7640324E1,1.1572818E1,5.376724E0,7.600662E0,5.7702827E0,1.0440468E2,8.126015E0,6.5327616E0,1.6750174E1,5.2562537E0,6.1343455E0,1.1157132E2,1.0918099E1,8.201743E0,1.2321241E1,5.004559E0,5.022516E0,5.7155666E0,3.320789E1,1.2571259E1,5.069066E0,5.2981896E0,6.274628E0,5.1876324E1,5.2528355E1,5.313456E0,1.1436718E1,5.564729E1,5.5924034E1,7.1329384E0,5.1883035E0],"tree_param":{"num_deleted":"0","num_feature":"573","num_nodes":"93","size_leaf_vector":"1"}},{"base_weights":[2.5437877E-3,8.9596055E-2,-6.218134E-1,6.3703775E-1,1.7374888E-2,2.8267916E-2,-7.164812E-1,7.907971E-1,-2.2372901E-2,1.6307189E-1,-1.9817336E-1,-8.723136E-1,7.984941E-2,-6.332315E-3,9.87891E-1,6.7010814E-1,6.402458E-2,-3.444164E-1,3.2049307E-1,-1.0007873E0,1.0139521E-2,-4.27676E-2,5.364111E-2,5.463678E-3,1.1909868E0,-4.354931E-2,1.0088333E0,-6.1075294E-1,1.7237543E-1,-7.120314E-2,-7.492926E-1,-1.341282E-1,9.084841E-1,-1.150305E0,-1.24992635E-2,2.352246E-2,1.344044E0,7.3760815E-2,-6.466853E-2,1.3383546E-2,1.2180953E0,3.068295E-2,-1.0429476E0,3.113408E-1,-5.7025844E-1,-2.8120595E-1,7.765035E-1,1.5764112E-2,-9.475889E-1,2.1689492E-1,-7.472748E-2,1.3582826E0,-6.734385E-3,-2.7454853E-2,-1.2581358E0,5.4081853E-2,1.110766E-1,1.4123839E0,3.4050845E-2,-1.11772515E-1,-1.8136144E-2,-2.1069877E-2,5.298153E-1,3.5535585E-2,-8.060672E-1,-5.6154305E-1,3.4795958E-1,1.2631884E-1,1.67981E-1,-1.1991394E0,-2.356293E-1,8.1489146E-2,-2.5823608E-1,1.2885238E-1,5.6693796E-2,-9.940496E-2,-5.6876253E-2,6.0795836E-2,1.19230464E-1,-5.1584452E-2,1.8498564E-2,-2.8967818E-2,4.775788E-2,7.6419986E-3,-7.9003654E-2,-5.878208E-2,3.0656649E-2,-8.604859E-3,8.557784E-2,4.962672E-2,-2.6408903E-2,-1.0253405E-1,-5.405808E-2,3.0010793E-2,-6.454407E-2,-6.5035634E-2,2.796673E-2],"categories":[],"categories_nodes":[],"categories_segments":[],"categories_sizes":[],"default_left":[0,0,0,0,0,0,0,0,0,0,0,0,0,0,0,0,0,0,0,0,0,0,0,0,0,0,0,0,0,0,0,0,0,0,0,0,0,0,0,0,0,0,0,0,0,0,0,0,0,0,0,0,0,0,0,0,0,0,0,0,0,0,0,0,0,0,0,0,0,0,0,0,0,0,0,0,0,0,0,0,0,0,0,0,0,0,0,0,0,0,0,0,0,0,0,0,0],"id":10,"left_children":[1,3,5,7,9,-1,11,13,-1,15,17,19,21,-1,23,25,27,29,31,33,-1,-1,-1,-1,35,37,39,41,43,45,47,49,51,53,-1,-1,55,-1,-1,-1,57,-1,59,61,63,65,67,-1,69,71,-1,73,-1,-1,75,-1,-1,77,-1,-1,-1,79,81,-1,83,85,87,-1,89,91,93,-1,95,-1,-1,-1,-1,-1,-1,-1,-1,-1,-1,-1,-1,-1,-1,-1,-1,-1,-1,-1,-1,-1,-1,-1,-1],"loss_changes":[3.0191156E1,1.9262388E1,6.6965637E0,8.402935E0,1.3589524E1,0E0,7.817047E0,8.54361E0,0E0,1.2920622E1,1.33511E1,6.9046288E0,5.0065484E0,0E0,7.367035E0,1.021578E1,1.5974613E1,1.5062492E1,1.0523485E1,5.6079254E0,0E0,0E0,0E0,0E0,3.9774017E0,1.3041883E1,4.7483177E0,1.376055E1,1.9558807E1,1.494001E1,1.0654678E1,7.1217275E0,7.7983503E0,2.859829E0,0E0,0E0,1.2861252E0,0E0,0E0,0E0,2.7216492E0,0E0,7.355219E0,1.154708E1,7.7571335E0,1.2014773E1,8.9335E0,0E0,7.906124E0,7.3196573E0,0E0,1.2686691E0,0E0,0E0,1.4149857E-1,0E0,0E0,5.8833694E-1,0E0,0E0,0E0,1.15857525E1,9.640812E0,0E0,5.6778297E0,1.0398131E1,7.936841E0,0E0,3.0830941E0,1.709858E0,5.581883E0,0E0,4.867588E0,0E0,0E0,0E0,0E0,0E0,0E0,0E0,0E0,0E0,0E0,0E0,0E0,0E0,0E0,0E0,0E0,0E0,0E0,0E0,0E0,0E0,0E0,0E0,0E0],"parents":[2147483647,0,0,1,1,2,2,3,3,4,4,6,6,7,7,9,9,10,10,11,11,12,12,14,14,15,15,16,16,17,17,18,18,19,19,24,24,25,25,26,26,27,27,28,28,29,29,30,30,31,31,32,32,33,33,36,36,40,40,42,42,43,43,44,44,45,45,46,46,48,48,49,49,51,51,54,54,57,57,61,61,62,62,64,64,65,65,66,66,68,68,69,69,70,70,72,72],"right_children":[2,4,6,8,10,-1,12,14,-1,16,18,20,22,-1,24,26,28,30,32,34,-1,-1,-1,-1,36,38,40,42,44,46,48,50,52,54,-1,-1,56,-1,-1,-1,58,-1,60,62,64,66,68,-1,70,72,-1,74,-1,-1,76,-1,-1,78,-1,-1,-1,80,82,-1,84,86,88,-1,90,92,94,-1,96,-1,-1,-1,-1,-1,-1,-1,-1,-1,-1,-1,-1,-1,-1,-1,-1,-1,-1,-1,-1,-1,-1,-1,-1],"split_conditions":[1.6201283E-1,-2.7236719E-2,-6.6156164E-2,9.977115E-3,8.1228666E-2,2.8267916E-2,7.1935254E-1,-1.2988734E-2,-2.2372901E-2,-3.265341E-2,1.7155396E-2,1.8249418E-3,5.863003E-3,-6.332315E-3,1.1831638E0,4.6261202E-4,-2.070498E-2,6.825101E-2,6.2097767E-3,2.9636985E-3,1.0139521E-2,-4.27676E-2,5.364111E-2,5.463678E-3,3.037687E-1,-7.2937664E-6,2.0775221E-2,3.1115027E-2,4.7576404E-3,4.0302214E-1,-3.0167731E-3,7.987607E-3,3.8193367E-2,-1.7302876E-2,-1.24992635E-2,2.352246E-2,-7.433745E-2,7.3760815E-2,-6.466853E-2,1.3383546E-2,5.495745E-2,3.068295E-2,2.909314E-3,1.7349344E-1,-1.0990521E-4,1.6887138E-3,4.6992865E-1,1.5764112E-2,7.4177355E-2,-5.32907E-4,-7.472748E-2,8.813999E-3,-6.734385E-3,-2.7454853E-2,3.7416604E-1,5.4081853E-2,1.110766E-1,-1.3959814E-3,3.4050845E-2,-1.11772515E-1,-1.8136144E-2,-2.2285092E-3,-4.6792747E-3,3.5535585E-2,-9.822975E-4,8.723354E-3,3.7787374E-6,1.2631884E-1,3.8027585E-2,1.3724662E-2,1.890782E-2,8.1489146E-2,3.5981946E-3,1.2885238E-1,5.6693796E-2,-9.940496E-2,-5.6876253E-2,6.0795836E-2,1.19230464E-1,-5.1584452E-2,1.8498564E-2,-2.8967818E-2,4.775788E-2,7.6419986E-3,-7.9003654E-2,-5.878208E-2,3.0656649E-2,-8.604859E-3,8.557784E-2,4.962672E-2,-2.6408903E-2,-1.0253405E-1,-5.405808E-2,3.0010793E-2,-6.454407E-2,-6.5035634E-2,2.796673E-2],"split_indices":[392,210,509,87,392,0,436,109,0,566,52,111,476,0,507,449,440,515,82,410,0,0,0,0,562,81,429,392,553,495,422,386,407,238,0,0,125,0,0,0,73,0,61,436,65,18,544,0,435,166,0,143,0,0,415,0,0,109,0,0,0,241,210,0,28,148,171,0,561,510,116,0,496,0,0,0,0,0,0,0,0,0,0,0,0,0,0,0,0,0,0,0,0,0,0,0,0],"split_type":[0,0,0,0,0,0,0,0,0,0,0,0,0,0,0,0,0,0,0,0,0,0,0,0,0,0,0,0,0,0,0,0,0,0,0,0,0,0,0,0,0,0,0,0,0,0,0,0,0,0,0,0,0,0,0,0,0,0,0,0,0,0,0,0,0,0,0,0,0,0,0,0,0,0,0,0,0,0,0,0,0,0,0,0,0,0,0,0,0,0,0,0,0,0,0,0,0],"sum_hessian":[5.534526E2,4.8648053E2,6.697203E1,5.5787388E1,4.306931E2,5.540451E0,6.143158E1,4.8044052E1,7.7433376E0,2.5713174E2,1.7356137E2,5.1297794E1,1.0133783E1,8.935612E0,3.910844E1,4.107874E1,2.1605302E2,1.3564961E2,3.791177E1,4.5502193E1,5.7956038E0,5.059542E0,5.074241E0,7.3503475E0,3.1758091E1,1.3502293E1,2.7576447E1,2.9250793E1,1.8680223E2,8.1696266E1,5.3953342E1,2.1816011E1,1.6095757E1,3.826428E1,7.237914E0,5.170264E0,2.6587828E1,5.8998594E0,7.6024327E0,5.923557E0,2.165289E1,8.722217E0,2.0528576E1,1.5784604E2,2.8956182E1,6.601148E1,1.5684784E1,9.230497E0,4.4722843E1,1.603607E1,5.779943E0,1.0847509E1,5.2482476E0,5.1564956E0,3.3107784E1,5.921593E0,2.0666235E1,1.6586792E1,5.0660963E0,1.262085E1,7.9077272E0,6.2958202E1,9.488784E1,5.1490374E0,2.3807146E1,4.5739033E1,2.0272446E1,5.5852947E0,1.0099489E1,3.2541103E1,1.2181743E1,5.21123E0,1.082484E1,5.6318626E0,5.215647E0,2.772454E1,5.3832417E0,5.043747E0,1.1543046E1,1.7587997E1,4.5370205E1,9.647591E0,8.524025E1,5.2223744E0,1.858477E1,3.7372272E1,8.366761E0,1.3343202E1,6.9292445E0,5.0415363E0,5.057953E0,2.2708836E1,9.832266E0,6.216942E0,5.9648004E0,5.319074E0,5.5057654E0],"tree_param":{"num_deleted":"0","num_feature":"573","num_nodes":"97","size_leaf_vector":"1"}},{"base_weights":[2.6749098E-3,8.4397055E-2,-5.896847E-1,6.000305E-1,1.6612846E-2,-6.801616E-1,3.206478E-2,3.4875485E-1,1.2254033E0,-1.3493096E-2,9.7906446E-1,-4.1730613E-1,-1.1362313E0,5.7871413E-1,-5.7919607E-2,1.0856759E-1,5.0458882E-2,1.4106834E-1,-2.0935363E-1,2.6689054E-2,1.1067224E-1,-7.689994E-1,8.229418E-2,-3.9685942E-2,-9.836413E-2,-3.626646E-2,8.614215E-1,2.020642E-1,-7.9265934E-1,-3.052363E-1,4.8757973E-1,4.800064E-3,-1.0854073E0,-4.8509762E-1,7.804414E-2,1.2234651E0,-1.2795888E-2,8.3481854E-1,1.078604E-1,-9.616371E-2,-1.2910801E-2,-3.7040302E-1,5.8418196E-2,-4.1350365E-2,8.446682E-1,-4.673223E-2,-9.228091E-2,-7.416137E-2,8.946681E-3,1.0786436E-1,5.262683E-2,-2.5125561E-2,1.1836604E0,6.2802476E-1,-4.3976055E-3,-4.5305058E-1,4.316456E-1,1.211208E0,-4.0444243E-4,1.0186213E-1,4.079091E-2,6.2223744E-2,-1.6955772E-2,-5.056849E-3,7.162379E-2,-4.5893483E-2,-1.1492637E-3,8.781176E-2,-1.8446676E-2,1.1382845E-1,5.0711494E-2],"categories":[],"categories_nodes":[],"categories_segments":[],"categories_sizes":[],"default_left":[0,0,0,0,0,0,0,0,0,0,0,0,0,0,0,0,0,0,0,0,0,0,0,0,0,0,0,0,0,0,0,0,0,0,0,0,0,0,0,0,0,0,0,0,0,0,0,0,0,0,0,0,0,0,0,0,0,0,0,0,0,0,0,0,0,0,0,0,0,0,0],"id":11,"left_children":[1,3,5,7,9,11,-1,13,15,17,19,21,23,25,-1,-1,-1,27,29,-1,-1,31,33,-1,-1,-1,35,37,39,41,43,-1,45,47,-1,49,-1,51,53,-1,-1,55,-1,-1,57,-1,-1,-1,-1,-1,-1,-1,59,61,63,65,67,69,-1,-1,-1,-1,-1,-1,-1,-1,-1,-1,-1,-1,-1],"loss_changes":[2.6614485E1,1.6875362E1,6.4252167E0,8.388359E0,1.2414804E1,6.909912E0,0E0,1.112406E1,9.514637E-1,1.2623095E1,3.496581E0,7.2066317E0,1.6408043E0,1.0909345E1,0E0,0E0,0E0,1.3436902E1,1.2437174E1,0E0,0E0,6.383497E0,1.0128284E1,0E0,0E0,0E0,1.0653925E1,1.3000891E1,4.183032E0,1.1752702E1,8.859154E0,0E0,4.009323E-1,3.7100587E0,0E0,1.323206E0,0E0,1.1949827E1,1.1232044E1,0E0,0E0,1.0386848E1,0E0,0E0,5.3758316E0,0E0,0E0,0E0,0E0,0E0,0E0,0E0,1.7206478E0,6.06715E0,9.688569E0,9.716915E0,7.738249E0,9.4914436E-1,0E0,0E0,0E0,0E0,0E0,0E0,0E0,0E0,0E0,0E0,0E0,0E0,0E0],"parents":[2147483647,0,0,1,1,2,2,3,3,4,4,5,5,7,7,8,8,9,9,10,10,11,11,12,12,13,13,17,17,18,18,21,21,22,22,26,26,27,27,28,28,29,29,30,30,32,32,33,33,35,35,37,37,38,38,41,41,44,44,52,52,53,53,54,54,55,55,56,56,57,57],"right_children":[2,4,6,8,10,12,-1,14,16,18,20,22,24,26,-1,-1,-1,28,30,-1,-1,32,34,-1,-1,-1,36,38,40,42,44,-1,46,48,-1,50,-1,52,54,-1,-1,56,-1,-1,58,-1,-1,-1,-1,-1,-1,-1,60,62,64,66,68,70,-1,-1,-1,-1,-1,-1,-1,-1,-1,-1,-1,-1,-1],"split_conditions":[1.6201283E-1,-2.7236719E-2,3.5177153E-2,2.5666004E-2,3.8566608E-2,4.119625E-1,3.206478E-2,9.354021E-3,1.4447917E-3,7.6629974E-2,3.359438E-2,1.8770914E-3,-6.949478E-3,1.1831638E0,-5.7919607E-2,1.0856759E-1,5.0458882E-2,4.1883726E-2,6.929062E-2,2.6689054E-2,1.1067224E-1,9.774166E-3,3.7589747E-2,-3.9685942E-2,-9.836413E-2,-3.626646E-2,8.962701E-2,-2.771956E-3,3.4177765E-1,4.359673E-2,-1.6928314E-3,4.800064E-3,-2.7027242E-3,-1.5607542E-1,7.804414E-2,-5.1613253E-1,-1.2795888E-2,-3.6890462E-2,-4.233209E-3,-9.616371E-2,-1.2910801E-2,3.0202182E-2,5.8418196E-2,-4.1350365E-2,4.023007E-4,-4.673223E-2,-9.228091E-2,-7.416137E-2,8.946681E-3,1.0786436E-1,5.262683E-2,-2.5125561E-2,1.2302897E-3,3.5374653E-2,2.953522E0,4.2455005E-3,-8.225852E-3,1.408539E-2,-4.0444243E-4,1.0186213E-1,4.079091E-2,6.2223744E-2,-1.6955772E-2,-5.056849E-3,7.162379E-2,-4.5893483E-2,-1.1492637E-3,8.781176E-2,-1.8446676E-2,1.1382845E-1,5.0711494E-2],"split_indices":[392,210,173,280,208,398,0,407,422,392,429,447,288,507,0,0,0,115,98,0,0,355,266,0,0,0,399,239,253,277,87,0,114,513,0,495,0,189,347,0,0,238,0,0,485,0,0,0,0,0,0,0,110,251,506,203,248,136,0,0,0,0,0,0,0,0,0,0,0,0,0],"split_type":[0,0,0,0,0,0,0,0,0,0,0,0,0,0,0,0,0,0,0,0,0,0,0,0,0,0,0,0,0,0,0,0,0,0,0,0,0,0,0,0,0,0,0,0,0,0,0,0,0,0,0,0,0,0,0,0,0,0,0,0,0,0,0,0,0,0,0,0,0,0,0],"sum_hessian":[5.477569E2,4.8210327E2,6.565361E1,5.5100735E1,4.2700253E2,6.0595276E1,5.058336E0,4.041829E1,1.4682448E1,4.150069E2,1.1995632E1,3.9655094E1,2.0940182E1,3.3939816E1,6.4784727E0,9.317244E0,5.365205E0,2.321152E2,1.828917E2,6.0807123E0,5.91492E0,2.2956001E1,1.6699093E1,5.592004E0,1.5348178E1,6.984662E0,2.6955153E1,2.1861758E2,1.3497623E1,1.6126695E2,2.1624746E1,6.5389013E0,1.64171E1,1.0798972E1,5.9001203E0,1.9817549E1,7.1376047E0,2.731105E1,1.9130653E2,6.9491396E0,6.5484843E0,1.5274403E2,8.522919E0,5.392309E0,1.6232437E1,5.184553E0,1.1232548E1,5.543076E0,5.2558956E0,1.27954645E1,7.0220838E0,6.282526E0,2.1028524E1,3.3142284E1,1.5816425E2,1.388693E2,1.3874737E1,1.1045048E1,5.1873903E0,1.56398735E1,5.3886514E0,2.6835857E1,6.3064275E0,1.4928651E2,8.877732E0,1.01598595E2,3.72707E1,6.2877245E0,7.5870123E0,5.8546643E0,5.1903834E0],"tree_param":{"num_deleted":"0","num_feature":"573","num_nodes":"71","size_leaf_vector":"1"}},{"base_weights":[3.2683294E-3,8.00935E-2,-5.606971E-1,3.5702366E-1,-3.802783E-2,-4.0065107E-1,-8.943753E-2,5.394012E-1,-1.3681528E-1,-1.8354335E-1,3.0046824E-1,-5.6065506E-1,6.0758084E-2,2.363204E-2,7.395791E-1,4.5545533E-1,-4.7476777E-1,-2.2549088E-1,9.4018415E-2,1.0784335E-1,8.5819745E-1,-8.855652E-1,3.3291958E-3,6.182066E-1,-7.375435E-1,8.3051205E-1,-1.622468E-2,7.5055666E-2,-2.9097429E-2,7.512418E-3,-1.0690546E0,-8.256323E-2,-5.7853717E-1,1.0036227E0,-1.0298838E-1,-1.9001435E-3,1.1798422E0,9.388502E-3,-1.0914092E0,4.647868E-1,-5.2138668E-2,8.116607E-2,-6.2258E-3,-8.851918E-2,-9.810921E-3,1.3098024E-1,9.6738523E-1,-4.033271E-2,4.9583245E-2,-4.2274617E-2,-1.0439919E-1,-6.895919E-1,7.0497155E-2,3.9268887E-1,-7.801392E-1,3.5764143E-2,1.1545813E-1,-2.4870968E-1,7.1800366E-2,1.0485169E-1,3.5621006E-2,-9.136041E-2,-3.6526058E-2,-1.3302145E-2,7.369257E-2,5.6604665E-2,-3.3345643E-2,1.0775602E0,1.750732E-2,3.1379987E-2,-9.052666E-1,-4.1743705E-1,2.3401137E-1,-3.7663713E-2,8.2940064E-2,-8.991768E-1,1.5559278E-2,1.9599117E-1,-6.4348274E-1,9.177861E-2,2.0024965E-2,-8.2176015E-2,-9.508437E-3,-5.7637013E-2,1.8178893E-2,2.8657751E-2,-5.1496353E-2,-3.0666066E-2,-8.302603E-2,3.7740245E-2,-5.106529E-2,-6.476437E-2,9.679543E-3],"categories":[],"categories_nodes":[],"categories_segments":[],"categories_sizes":[],"default_left":[0,0,0,0,0,0,0,0,0,0,0,0,0,0,0,0,0,0,0,0,0,0,0,0,0,0,0,0,0,0,0,0,0,0,0,0,0,0,0,0,0,0,0,0,0,0,0,0,0,0,0,0,0,0,0,0,0,0,0,0,0,0,0,0,0,0,0,0,0,0,0,0,0,0,0,0,0,0,0,0,0,0,0,0,0,0,0,0,0,0,0,0,0],"id":12,"left_children":[1,3,5,7,9,11,-1,13,15,17,19,21,-1,23,25,27,29,31,-1,33,35,37,39,41,43,45,-1,-1,-1,47,49,51,53,55,57,-1,59,-1,61,63,-1,-1,-1,-1,-1,65,67,-1,-1,-1,-1,69,71,73,75,-1,-1,77,-1,-1,-1,-1,-1,-1,-1,-1,-1,79,-1,-1,81,83,85,-1,-1,87,-1,89,91,-1,-1,-1,-1,-1,-1,-1,-1,-1,-1,-1,-1,-1,-1],"loss_changes":[2.3617237E1,1.5705433E1,6.13056E0,1.3000818E1,1.6663284E1,1.0847605E1,0E0,1.0825541E1,8.12414E0,1.4535389E1,1.0838674E1,8.794756E0,0E0,1.4212864E1,6.753235E0,7.2241898E0,7.3580093E0,1.1586796E1,0E0,1.4602617E1,7.412031E0,6.470915E0,6.2970724E0,5.819646E0,3.548841E0,6.5049553E0,0E0,0E0,0E0,5.754617E0,1.0914917E0,1.5406182E1,1.3283672E1,3.4206247E0,9.98058E0,0E0,2.2680817E0,0E0,1.3520107E0,4.084321E0,0E0,0E0,0E0,0E0,0E0,4.820112E0,4.4200478E0,0E0,0E0,0E0,0E0,8.354908E0,1.0702097E1,8.25079E0,6.6782722E0,0E0,0E0,9.997366E0,0E0,0E0,0E0,0E0,0E0,0E0,0E0,0E0,0E0,5.59124E0,0E0,0E0,4.049513E0,7.997158E0,1.3922457E1,0E0,0E0,4.5882034E0,0E0,7.6721625E0,5.2145796E0,0E0,0E0,0E0,0E0,0E0,0E0,0E0,0E0,0E0,0E0,0E0,0E0,0E0,0E0],"parents":[2147483647,0,0,1,1,2,2,3,3,4,4,5,5,7,7,8,8,9,9,10,10,11,11,13,13,14,14,15,15,16,16,17,17,19,19,20,20,21,21,22,22,23,23,24,24,25,25,29,29,30,30,31,31,32,32,33,33,34,34,36,36,38,38,39,39,45,45,46,46,51,51,52,52,53,53,54,54,57,57,67,67,70,70,71,71,72,72,75,75,77,77,78,78],"right_children":[2,4,6,8,10,12,-1,14,16,18,20,22,-1,24,26,28,30,32,-1,34,36,38,40,42,44,46,-1,-1,-1,48,50,52,54,56,58,-1,60,-1,62,64,-1,-1,-1,-1,-1,66,68,-1,-1,-1,-1,70,72,74,76,-1,-1,78,-1,-1,-1,-1,-1,-1,-1,-1,-1,80,-1,-1,82,84,86,-1,-1,88,-1,90,92,-1,-1,-1,-1,-1,-1,-1,-1,-1,-1,-1,-1,-1,-1],"split_conditions":[1.6201283E-1,-3.1502083E-2,1.2067217E0,2.4927524E-3,1.4254301E-2,1.0287849E0,-8.943753E-2,9.234526E-2,1.8448637E-1,4.916279E-1,9.8162466E-1,6.2795924E-3,6.0758084E-2,4.6917406E-4,6.022187E-2,-2.3974396E-2,7.949737E-3,8.892841E-4,9.4018415E-2,8.995584E-3,1.920354E-2,-1.5174443E-1,5.5922195E-2,6.41093E-2,1.3965672E-6,3.4602568E-2,-1.622468E-2,7.5055666E-2,-2.9097429E-2,-3.8553756E-1,-6.678812E-2,-2.6033137E-2,6.948898E-2,1.6715892E-2,1.7489808E-2,-1.9001435E-3,6.110537E-1,9.388502E-3,6.8429446E-1,1.5524855E-3,-5.2138668E-2,8.116607E-2,-6.2258E-3,-8.851918E-2,-9.810921E-3,-1.3249755E-3,1.7977804E-1,-4.033271E-2,4.9583245E-2,-4.2274617E-2,-1.0439919E-1,-5.107086E-2,-5.197514E-5,-4.7035626E-4,3.4354087E-3,3.5764143E-2,1.1545813E-1,8.130131E-1,7.1800366E-2,1.0485169E-1,3.5621006E-2,-9.136041E-2,-3.6526058E-2,-1.3302145E-2,7.369257E-2,5.6604665E-2,-3.3345643E-2,3.0464986E-1,1.750732E-2,3.1379987E-2,1.3340743E-1,3.182342E-2,6.6104783E-3,-3.7663713E-2,8.2940064E-2,2.045211E-2,1.5559278E-2,6.982168E-4,2.94839E-3,9.177861E-2,2.0024965E-2,-8.2176015E-2,-9.508437E-3,-5.7637013E-2,1.8178893E-2,2.8657751E-2,-5.1496353E-2,-3.0666066E-2,-8.302603E-2,3.7740245E-2,-5.106529E-2,-6.476437E-2,9.679543E-3],"split_indices":[392,200,444,427,148,444,0,492,481,538,544,237,0,114,238,454,79,422,0,549,163,214,538,492,51,498,0,0,0,558,216,189,525,327,238,0,394,0,436,427,0,0,0,0,0,245,561,0,0,0,0,316,65,67,121,0,0,438,0,0,0,0,0,0,0,0,0,248,0,0,561,435,343,0,0,480,0,94,29,0,0,0,0,0,0,0,0,0,0,0,0,0,0],"split_type":[0,0,0,0,0,0,0,0,0,0,0,0,0,0,0,0,0,0,0,0,0,0,0,0,0,0,0,0,0,0,0,0,0,0,0,0,0,0,0,0,0,0,0,0,0,0,0,0,0,0,0,0,0,0,0,0,0,0,0,0,0,0,0,0,0,0,0,0,0,0,0,0,0,0,0,0,0,0,0,0,0,0,0,0,0,0,0,0,0,0,0,0,0],"sum_hessian":[5.4305963E2,4.7870667E2,6.435297E1,1.4252968E2,3.3617697E2,5.2650005E1,1.1702962E1,1.0402164E2,3.850804E1,2.3542729E2,1.0074968E2,4.6978634E1,5.671373E0,2.9396925E1,7.462471E1,1.3863756E1,2.4644285E1,2.2956958E2,5.857711E0,7.577304E1,2.497664E1,2.9445148E1,1.7533484E1,1.6610132E1,1.2786793E1,6.826228E1,6.3624268E0,8.30676E0,5.5569963E0,1.4149187E1,1.0495098E1,1.6429149E2,6.527808E1,1.371988E1,6.205316E1,6.911775E0,1.8064865E1,5.0483537E0,2.4396795E1,1.0759825E1,6.7736588E0,9.668791E0,6.941342E0,6.846127E0,5.9406657E0,1.1491001E1,5.6771286E1,7.810378E0,6.3388085E0,5.1619987E0,5.3331E0,3.237777E1,1.3191373E2,1.1057978E1,5.4220108E1,7.8714046E0,5.8484755E0,5.5228516E1,6.8246465E0,1.3044124E1,5.0207415E0,1.9328524E1,5.068271E0,5.096559E0,5.6632657E0,5.3654222E0,6.125579E0,4.89545E1,7.8167877E0,5.1223936E0,2.7255375E1,3.2720695E1,9.919302E1,5.0354824E0,6.0224953E0,4.84677E1,5.752409E0,2.620869E1,2.9019825E1,4.104401E1,7.910487E0,2.157163E1,5.683746E0,2.1250002E1,1.14706955E1,8.595182E1,1.3241209E1,1.5312413E1,3.315529E1,1.9724323E1,6.484367E0,2.2494879E1,6.524947E0],"tree_param":{"num_deleted":"0","num_feature":"573","num_nodes":"93","size_leaf_vector":"1"}},{"base_weights":[3.0894533E-3,1.0000835E-1,-4.0558174E-1,4.5329775E-3,5.128806E-1,-5.713065E-1,1.4726116E-1,3.147575E-1,-1.3436252E-1,-3.0143438E-2,6.358763E-1,-4.982999E-2,-7.604592E-1,6.9793177E-1,-4.5259762E-1,-5.216306E-2,6.1655045E-1,-3.082096E-1,2.3536061E-1,-2.4790835E-2,7.2946924E-1,3.4414312E-1,-6.18187E-2,1.5652791E-3,-9.1596824E-1,9.334045E-2,-1.2211738E-2,1.7103005E-2,-8.0555536E-2,-3.9611366E-1,6.283668E-1,-4.2697474E-2,7.6132506E-1,-6.236046E-1,-1.18303575E-1,-4.1365704E-1,4.9042118E-1,1.0408583E-1,5.2914846E-1,5.8928408E-2,-1.9943304E-2,-1.0638671E0,-1.4539233E-2,2.1949147E-1,-8.250057E-1,1.1007664E0,-2.1745238E-2,5.280856E-1,1.2757888E0,2.5173957E-2,-7.6270026E-1,6.2262434E-1,-2.623794E-1,-7.415507E-1,4.652571E-2,-3.1639674E-1,6.716405E-1,7.273495E-1,-2.206811E-1,-3.287951E-2,-1.2012138E0,7.1917094E-2,-2.184185E-2,3.1314117E-3,-1.1155667E0,1.0553475E-1,4.6757653E-2,1.8339099E-1,1.0856661E0,5.3135682E-2,1.1183431E-1,1.0918554E-2,-9.179883E-1,8.6446E-2,1.0311763E-1,-6.1126995E-1,1.5936248E-1,-8.611643E-2,-1.8663531E-2,1.6404541E-2,-6.118173E-2,9.452153E-1,-2.3504752E-1,9.9355504E-2,1.0037396E0,2.9886385E-2,-5.547086E-2,-4.9704786E-2,-9.884732E-2,-4.1686483E-2,-1.07704006E-1,4.9788903E-2,-5.07818E-2,2.251117E-2,1.17878556E-1,-7.629716E-2,-9.181031E-3,-3.9705005E-2,5.3557407E-2,4.4847988E-3,-7.278167E-2,-6.6281065E-2,3.9353907E-2,8.729696E-2,2.8473223E-2,-5.29838E-2,2.326475E-2,-4.914867E-2,4.7738083E-2,8.716053E-2,1.6054355E-2],"categories":[],"categories_nodes":[],"categories_segments":[],"categories_sizes":[],"default_left":[0,0,0,0,0,0,0,0,0,0,0,0,0,0,0,0,0,0,0,0,0,0,0,0,0,0,0,0,0,0,0,0,0,0,0,0,0,0,0,0,0,0,0,0,0,0,0,0,0,0,0,0,0,0,0,0,0,0,0,0,0,0,0,0,0,0,0,0,0,0,0,0,0,0,0,0,0,0,0,0,0,0,0,0,0,0,0,0,0,0,0,0,0,0,0,0,0,0,0,0,0,0,0,0,0,0,0,0,0,0,0],"id":13,"left_children":[1,3,5,7,9,11,13,15,17,-1,19,21,23,25,27,29,31,33,35,-1,37,39,-1,-1,41,-1,-1,-1,-1,43,45,-1,47,49,51,53,55,-1,57,-1,-1,59,-1,61,63,65,-1,67,69,-1,71,73,75,77,-1,79,81,83,85,-1,87,-1,-1,-1,89,-1,-1,91,93,-1,-1,-1,95,97,-1,99,101,-1,-1,-1,-1,103,105,107,109,-1,-1,-1,-1,-1,-1,-1,-1,-1,-1,-1,-1,-1,-1,-1,-1,-1,-1,-1,-1,-1,-1,-1,-1,-1,-1],"loss_changes":[2.1355898E1,1.7176456E1,9.553926E0,1.5336981E1,9.463907E0,7.8262367E0,8.452814E0,1.2221079E1,1.5876783E1,0E0,6.8013153E0,7.084793E0,7.1192093E0,6.430357E0,5.4887047E0,1.2092482E1,1.0815849E1,9.969308E0,1.3314636E1,0E0,8.027237E0,4.379053E0,0E0,0E0,5.001049E0,0E0,0E0,0E0,0E0,9.217309E0,7.856206E0,0E0,5.8446827E0,8.633118E0,1.1467474E1,8.220146E0,8.593061E0,0E0,7.9708395E0,0E0,0E0,2.9308128E0,0E0,5.884394E0,5.1795387E0,8.309345E-1,0E0,7.312606E0,9.2741394E-1,0E0,7.910618E0,6.9542146E0,1.324569E1,3.2874584E0,0E0,3.1693358E0,1.1911514E1,7.155388E0,4.071446E0,0E0,1.1650505E0,0E0,0E0,0E0,1.9465771E0,0E0,0E0,1.0932335E1,5.151333E0,0E0,0E0,0E0,3.6064987E0,4.7480135E0,0E0,1.1894159E1,1.6183784E1,0E0,0E0,0E0,0E0,4.061531E0,3.2325923E0,6.045365E0,3.3680859E0,0E0,0E0,0E0,0E0,0E0,0E0,0E0,0E0,0E0,0E0,0E0,0E0,0E0,0E0,0E0,0E0,0E0,0E0,0E0,0E0,0E0,0E0,0E0,0E0,0E0,0E0],"parents":[2147483647,0,0,1,1,2,2,3,3,4,4,5,5,6,6,7,7,8,8,10,10,11,11,12,12,13,13,14,14,15,15,16,16,17,17,18,18,20,20,21,21,24,24,29,29,30,30,32,32,33,33,34,34,35,35,36,36,38,38,41,41,43,43,44,44,45,45,47,47,48,48,50,50,51,51,52,52,53,53,55,55,56,56,57,57,58,58,60,60,64,64,67,67,68,68,72,72,73,73,75,75,76,76,81,81,82,82,83,83,84,84],"right_children":[2,4,6,8,10,12,14,16,18,-1,20,22,24,26,28,30,32,34,36,-1,38,40,-1,-1,42,-1,-1,-1,-1,44,46,-1,48,50,52,54,56,-1,58,-1,-1,60,-1,62,64,66,-1,68,70,-1,72,74,76,78,-1,80,82,84,86,-1,88,-1,-1,-1,90,-1,-1,92,94,-1,-1,-1,96,98,-1,100,102,-1,-1,-1,-1,104,106,108,110,-1,-1,-1,-1,-1,-1,-1,-1,-1,-1,-1,-1,-1,-1,-1,-1,-1,-1,-1,-1,-1,-1,-1,-1,-1,-1],"split_conditions":[4.4987466E-2,2.5513574E-2,6.3790314E-2,9.76278E-2,-9.377226E-4,-8.850257E-3,2.53834E-1,1.5913201E-2,2.6180789E-2,-3.0143438E-2,-1.19190685E-1,2.2889597E-2,-8.624939E-4,3.233408E-1,1.0427079E-2,1.8588883E-1,-4.144546E-2,2.1477121E-1,-2.5806907E-3,-2.4790835E-2,-8.518287E-2,1.090152E-1,-6.18187E-2,1.5652791E-3,8.104004E-2,9.334045E-2,-1.2211738E-2,1.7103005E-2,-8.0555536E-2,-1.3241973E-2,4.6792816E-2,-4.2697474E-2,8.9288784E-5,-6.017309E-2,1.9679055E-1,7.3199585E-2,-1.1914663E-2,1.0408583E-1,8.245187E-3,5.8928408E-2,-1.9943304E-2,2.9317772E-3,-1.4539233E-2,-1.164325E-3,-3.9786855E-3,-7.92357E-4,-2.1745238E-2,1.6686544E-1,1.14432655E-1,2.5173957E-2,-6.6166173E-4,5.5416854E-4,9.433932E-1,-2.0831835E-3,4.652571E-2,2.4946447E-2,7.4892625E-2,9.005219E-2,2.0106547E-1,-3.287951E-2,6.453361E-1,7.1917094E-2,-2.184185E-2,3.1314117E-3,1.6969357E-1,1.0553475E-1,4.6757653E-2,1.182392E-2,1.0846833E0,5.3135682E-2,1.1183431E-1,1.0918554E-2,3.3461093E-4,8.1700657E-4,1.0311763E-1,2.8809657E-2,1.8297E-5,-8.611643E-2,-1.8663531E-2,1.6404541E-2,-6.118173E-2,1.8470421E-1,3.097302E-5,-8.208313E-5,5.8242347E-4,2.9886385E-2,-5.547086E-2,-4.9704786E-2,-9.884732E-2,-4.1686483E-2,-1.07704006E-1,4.9788903E-2,-5.07818E-2,2.251117E-2,1.17878556E-1,-7.629716E-2,-9.181031E-3,-3.9705005E-2,5.3557407E-2,4.4847988E-3,-7.278167E-2,-6.6281065E-2,3.9353907E-2,8.729696E-2,2.8473223E-2,-5.29838E-2,2.326475E-2,-4.914867E-2,4.7738083E-2,8.716053E-2,1.6054355E-2],"split_indices":[72,148,148,455,363,167,452,248,134,0,162,152,27,518,220,475,291,468,267,0,226,200,0,0,317,0,0,0,0,474,326,0,414,316,481,334,48,0,510,0,0,527,0,209,323,162,0,549,492,0,27,109,544,137,0,434,429,534,534,0,502,0,0,0,442,0,0,103,444,0,0,0,256,155,0,549,427,0,0,0,0,482,115,430,77,0,0,0,0,0,0,0,0,0,0,0,0,0,0,0,0,0,0,0,0,0,0,0,0,0,0],"split_type":[0,0,0,0,0,0,0,0,0,0,0,0,0,0,0,0,0,0,0,0,0,0,0,0,0,0,0,0,0,0,0,0,0,0,0,0,0,0,0,0,0,0,0,0,0,0,0,0,0,0,0,0,0,0,0,0,0,0,0,0,0,0,0,0,0,0,0,0,0,0,0,0,0,0,0,0,0,0,0,0,0,0,0,0,0,0,0,0,0,0,0,0,0,0,0,0,0,0,0,0,0,0,0,0,0,0,0,0,0,0,0],"sum_hessian":[5.371578E2,4.3479803E2,1.0235976E2,3.539575E2,8.0840546E1,7.8726616E1,2.363314E1,1.0907382E2,2.4488365E2,9.312224E0,7.152832E1,2.129146E1,5.7435158E1,1.2236519E1,1.1396623E1,4.959873E1,5.9475098E1,1.6667702E2,7.820663E1,6.0919914E0,6.543633E1,1.4480403E1,6.811056E0,9.677572E0,4.7757584E1,7.2112617E0,5.0252566E0,5.74156E0,5.655062E0,3.3224483E1,1.6374247E1,6.151968E0,5.3323128E1,6.1783516E1,1.048935E2,2.1888405E1,5.6318226E1,1.3882946E1,5.1553387E1,8.23315E0,6.247254E0,3.924614E1,8.511443E0,1.3843137E1,1.9381346E1,1.0680975E1,5.6932726E0,3.8083782E1,1.5239347E1,7.645324E0,5.413819E1,1.6535603E1,8.83579E1,1.6833223E1,5.0551825E0,1.0192707E1,4.612552E1,4.0799034E1,1.0754352E1,7.8210683E0,3.1425074E1,5.2968826E0,8.546254E0,5.080945E0,1.4300402E1,5.319116E0,5.3618584E0,2.4355923E1,1.3727858E1,5.373269E0,9.866078E0,7.913657E0,4.6224537E1,1.0305425E1,6.2301784E0,4.8109447E1,4.0248455E1,8.492898E0,8.340325E0,5.1914396E0,5.0012674E0,3.5401375E1,1.0724141E1,1.2884121E1,2.7914913E1,5.009421E0,5.7449307E0,6.788983E0,2.463609E1,6.20221E0,8.098191E0,1.5775807E1,8.580115E0,5.8656807E0,7.8621774E0,4.084713E1,5.3774066E0,5.2806487E0,5.0247755E0,1.7062357E1,3.104709E1,1.0072399E1,3.0176054E1,2.4765068E1,1.0636308E1,5.5929613E0,5.13118E0,5.265868E0,7.6182528E0,2.2858177E1,5.056738E0],"tree_param":{"num_deleted":"0","num_feature":"573","num_nodes":"111","size_leaf_vector":"1"}},{"base_weights":[3.1189616E-3,7.291379E-2,-5.180927E-1,-2.4114413E-2,3.5813606E-1,-8.530956E-1,-2.2594136E-1,-1.3976575E-1,2.335271E-1,9.167661E-1,1.8700233E-1,1.0780516E-2,-1.137346E0,-4.5973128E-1,5.649514E-2,3.8569477E-1,-2.2025487E-1,-6.6872185E-1,3.5720164E-1,8.353617E-3,1.13987E0,-4.2642426E-1,4.366932E-1,-9.4814174E-2,-5.4679323E-2,-1.0898983E-1,-9.1684595E-2,-5.1389545E-2,6.1312026E-1,6.5766804E-2,-2.5995883E-1,-8.347528E-2,2.4572578E-3,5.631593E-1,-2.3716034E-1,1.018529E-1,2.6071187E-2,3.5815902E-2,-6.55491E-1,-9.06053E-2,6.09203E-1,3.9212316E-2,-6.307865E-1,8.6464065E-1,-2.6299512E-2,2.1241401E-1,-3.7069255E-1,6.799979E-1,-3.543143E-2,1.2724158E-1,-6.346424E-2,-1.0046909E0,-4.382363E-3,-4.6874464E-2,3.6413997E-2,8.849467E-1,7.110567E-2,-1.5239029E-3,-8.201885E-2,1.4320309E-2,1.2067529E0,-6.220367E-1,5.4684657E-1,-1.7512953E-1,-6.7685974E-1,-7.3594876E-2,8.940056E-1,-5.614542E-2,6.496912E-1,-9.6221775E-2,-3.3273693E-2,1.0737911E0,-1.875925E-3,8.57573E-2,-4.6349552E-1,4.5845583E-2,1.0963396E-1,-8.5845485E-2,-2.0639757E-3,8.8517964E-2,7.2300765E-3,-2.117533E-2,5.3088564E-2,2.9828412E-2,-6.0263522E-2,-4.6720322E-2,6.540767E-2,-2.1091122E-2,7.827836E-2,8.351208E-2,5.7084574E-3,1.0183849E-1,2.2681039E-2,2.093169E-2,-9.2210226E-2],"categories":[],"categories_nodes":[],"categories_segments":[],"categories_sizes":[],"default_left":[0,0,0,0,0,0,0,0,0,0,0,0,0,0,0,0,0,0,0,0,0,0,0,0,0,0,0,0,0,0,0,0,0,0,0,0,0,0,0,0,0,0,0,0,0,0,0,0,0,0,0,0,0,0,0,0,0,0,0,0,0,0,0,0,0,0,0,0,0,0,0,0,0,0,0,0,0,0,0,0,0,0,0,0,0,0,0,0,0,0,0,0,0,0,0],"id":14,"left_children":[1,3,5,7,9,11,13,15,17,19,21,-1,23,25,-1,27,29,31,33,-1,35,37,39,-1,-1,41,-1,-1,43,-1,45,-1,-1,47,49,-1,-1,-1,51,53,55,-1,57,59,-1,61,63,65,-1,67,-1,69,-1,-1,-1,71,73,-1,-1,-1,75,77,79,81,83,85,87,-1,89,-1,-1,91,-1,-1,93,-1,-1,-1,-1,-1,-1,-1,-1,-1,-1,-1,-1,-1,-1,-1,-1,-1,-1,-1,-1],"loss_changes":[1.9401901E1,1.3024532E1,5.971775E0,1.0517255E1,1.12476635E1,8.3752365E0,8.359977E0,1.0382804E1,1.2445131E1,4.8601017E0,1.4383509E1,0E0,2.520008E-1,7.5925694E0,0E0,8.3855E0,9.45321E0,4.254754E0,1.1989855E1,0E0,3.2658024E0,5.970298E0,6.092575E0,0E0,0E0,7.2136254E0,0E0,0E0,6.9705534E0,0E0,1.0809791E1,0E0,0E0,9.060259E0,5.795471E0,0E0,0E0,0E0,4.573739E0,5.608621E0,7.3765945E0,0E0,3.336707E0,4.8633823E0,0E0,1.1389799E1,9.854116E0,1.0599155E1,0E0,8.22135E0,0E0,1.6098518E0,0E0,0E0,0E0,5.7085705E0,1.089202E1,0E0,0E0,0E0,1.3038769E0,3.6333795E0,8.102675E0,9.948797E0,9.107653E0,8.527902E0,9.256409E0,0E0,2.874383E0,0E0,0E0,5.593998E0,0E0,0E0,7.6087484E0,0E0,0E0,0E0,0E0,0E0,0E0,0E0,0E0,0E0,0E0,0E0,0E0,0E0,0E0,0E0,0E0,0E0,0E0,0E0,0E0],"parents":[2147483647,0,0,1,1,2,2,3,3,4,4,5,5,6,6,7,7,8,8,9,9,10,10,12,12,13,13,15,15,16,16,17,17,18,18,20,20,21,21,22,22,25,25,28,28,30,30,33,33,34,34,38,38,39,39,40,40,42,42,43,43,45,45,46,46,47,47,49,49,51,51,55,55,56,56,60,60,61,61,62,62,63,63,64,64,65,65,66,66,68,68,71,71,74,74],"right_children":[2,4,6,8,10,12,14,16,18,20,22,-1,24,26,-1,28,30,32,34,-1,36,38,40,-1,-1,42,-1,-1,44,-1,46,-1,-1,48,50,-1,-1,-1,52,54,56,-1,58,60,-1,62,64,66,-1,68,-1,70,-1,-1,-1,72,74,-1,-1,-1,76,78,80,82,84,86,88,-1,90,-1,-1,92,-1,-1,94,-1,-1,-1,-1,-1,-1,-1,-1,-1,-1,-1,-1,-1,-1,-1,-1,-1,-1,-1,-1],"split_conditions":[1.6201283E-1,1.07201375E-2,8.927232E-2,2.7461177E-2,-1.8533377E-1,-6.895572E-2,-3.618584E-2,-8.624939E-4,-5.8302905E-2,-1.2190645E-1,-4.0551675E-3,1.0780516E-2,1.9647527E-2,3.8545255E-3,5.649514E-2,-1.98507E-2,-2.719855E-2,2.3152053E-3,5.9173635E-4,8.353617E-3,5.212253E0,-8.874571E-3,-1.1662734E-2,-9.4814174E-2,-5.4679323E-2,3.3239743E-3,-9.1684595E-2,-5.1389545E-2,1.3701563E-2,6.5766804E-2,-1.6254818E-2,-8.347528E-2,2.4572578E-3,1.6504133E-1,3.8345423E-2,1.018529E-1,2.6071187E-2,3.5815902E-2,2.2073611E-5,1.8099809E-1,5.596034E-3,3.9212316E-2,4.2052887E-2,-3.929471E-2,-2.6299512E-2,-2.280217E-2,1.1750773E-4,-9.110884E-3,-3.543143E-2,-1.4099349E-2,-6.346424E-2,-3.8769483E-3,-4.382363E-3,-4.6874464E-2,3.6413997E-2,3.3337295E-5,2.4660307E-1,-1.5239029E-3,-8.201885E-2,1.4320309E-2,-3.8263042E-5,4.450384E-2,8.726004E-3,2.5871798E-2,-1.2024781E-1,1.7193344E-4,-1.1957046E-2,-5.614542E-2,3.3239743E-3,-9.6221775E-2,-3.3273693E-2,5.96149E-2,-1.875925E-3,8.57573E-2,3.2518476E-2,4.5845583E-2,1.0963396E-1,-8.5845485E-2,-2.0639757E-3,8.8517964E-2,7.2300765E-3,-2.117533E-2,5.3088564E-2,2.9828412E-2,-6.0263522E-2,-4.6720322E-2,6.540767E-2,-2.1091122E-2,7.827836E-2,8.351208E-2,5.7084574E-3,1.0183849E-1,2.2681039E-2,2.093169E-2,-9.2210226E-2],"split_indices":[392,323,480,134,216,159,516,27,237,517,277,0,60,203,0,203,222,563,28,0,481,284,79,0,0,397,0,0,254,0,72,0,0,200,116,0,0,0,235,509,512,0,412,244,0,97,422,10,0,440,0,70,0,0,0,111,418,0,0,0,64,198,500,437,142,305,75,0,397,0,0,406,0,0,434,0,0,0,0,0,0,0,0,0,0,0,0,0,0,0,0,0,0,0,0],"split_type":[0,0,0,0,0,0,0,0,0,0,0,0,0,0,0,0,0,0,0,0,0,0,0,0,0,0,0,0,0,0,0,0,0,0,0,0,0,0,0,0,0,0,0,0,0,0,0,0,0,0,0,0,0,0,0,0,0,0,0,0,0,0,0,0,0,0,0,0,0,0,0,0,0,0,0,0,0,0,0,0,0,0,0,0,0,0,0,0,0,0,0,0,0,0,0],"sum_hessian":[5.3130505E2,4.6931918E2,6.1985863E1,3.5087305E2,1.1844613E2,2.798085E1,3.4005013E1,2.4248344E2,1.08389595E2,2.6754543E1,9.169159E1,6.318138E0,2.1662712E1,2.7879248E1,6.125764E0,3.1705725E1,2.1077773E2,1.2535033E1,9.585456E1,6.1289268E0,2.0625616E1,2.6320656E1,6.537093E1,1.4928553E1,6.734159E0,1.988022E1,7.9990273E0,5.2013006E0,2.6504425E1,6.6249084E0,2.0415282E2,7.3152947E0,5.2197385E0,7.122593E1,2.4628633E1,1.5612224E1,5.013392E0,5.101962E0,2.1218695E1,1.6231634E1,4.9139297E1,8.991196E0,1.0889026E1,2.1100609E1,5.403816E0,3.8594868E1,1.6555795E2,6.431319E1,6.9127398E0,1.5903896E1,8.724738E0,1.2957539E1,8.261156E0,8.376839E0,7.854795E0,3.2063847E1,1.7075449E1,5.1455445E0,5.7434807E0,7.6311374E0,1.3469471E1,1.0796439E1,2.7798428E1,1.019865E2,6.3571445E1,1.4369496E1,4.9943695E1,5.780482E0,1.0123414E1,7.8014326E0,5.156106E0,2.6404135E1,5.659713E0,5.301878E0,1.1773571E1,5.057507E0,8.411964E0,5.2534657E0,5.542973E0,1.0879744E1,1.6918684E1,9.1550934E1,1.0435572E1,6.477141E0,5.7094303E1,9.305405E0,5.0640917E0,5.5439706E0,4.4399723E1,5.0768747E0,5.0465393E0,1.8742155E1,7.66198E0,6.3008056E0,5.4727654E0],"tree_param":{"num_deleted":"0","num_feature":"573","num_nodes":"95","size_leaf_vector":"1"}},{"base_weights":[2.9101535E-3,6.863243E-2,-4.9394596E-1,6.0885353E-3,5.019228E-1,-3.4118167E-1,-8.410522E-2,-2.5482353E-2,8.278423E-1,8.9027256E-1,-1.5955023E-1,-4.9517503E-1,5.819566E-2,2.1164511E-1,-1.3586763E-1,9.005185E-2,1.36814425E-2,-5.1035085E-3,1.0555637E0,-6.231649E-1,3.9726052E-2,-8.1344235E-1,3.666147E-2,8.6705886E-2,9.7116804E-1,-2.3297735E-1,3.530666E-1,2.3683114E-2,1.1822488E0,-8.1037216E-2,7.785888E-3,7.4895783E-3,-1.0221409E0,-4.6332665E-2,4.6999955E-1,2.2800188E-1,-5.466654E-1,1.0969154E-2,9.725102E-2,-4.0618852E-1,1.4099605E-1,-2.96107E-1,7.885535E-1,4.357438E-2,9.782507E-2,-4.4816997E-2,-9.240458E-2,7.55887E-2,-1.0885496E-2,-5.2019354E-2,3.3495036E-1,-8.496188E-1,2.0836703E-2,-5.834651E-1,2.6597504E-2,-2.0724732E-1,7.496072E-1,5.5121616E-2,-8.1829E-1,1.0245702E0,-1.2708242E-2,-3.671007E-3,4.918662E-2,-9.519389E-2,-2.071462E-2,2.275126E-3,-5.5553593E-2,-7.06115E-2,2.0334257E-2,4.0165182E-2,-3.249915E-2,1.2912471E-2,8.723033E-2,-1.8554244E-2,-8.6643696E-2,9.5798776E-2,1.7989341E-2],"categories":[],"categories_nodes":[],"categories_segments":[],"categories_sizes":[],"default_left":[0,0,0,0,0,0,0,0,0,0,0,0,0,0,0,0,0,0,0,0,